<?xml version="1.0"?>
<MethodSetup Method="BDT::BDTG">
  <GeneralInfo>
    <Info name="TMVA Release" value="4.2.0 [262656]"/>
    <Info name="ROOT Release" value="5.34/18 [336402]"/>
    <Info name="Creator" value="cvernier"/>
    <Info name="Date" value="Mon Sep 21 18:48:33 2015"/>
    <Info name="Host" value="Linux cmsdev04.cern.ch 2.6.32-431.11.2.el6.x86_64 #1 SMP Wed Mar 26 09:39:43 CET 2014 x86_64 x86_64 x86_64 GNU/Linux"/>
    <Info name="Dir" value="/afs/cern.ch/work/c/cvernier/testRegression/CMSSW_7_1_4/src/Phys14-Optimization"/>
    <Info name="Training events" value="647342"/>
    <Info name="TrainingTime" value="2.83346785e+02"/>
    <Info name="AnalysisType" value="Regression"/>
  </GeneralInfo>
  <Options>
    <Option name="V" modified="Yes">False</Option>
    <Option name="VerbosityLevel" modified="No">Default</Option>
    <Option name="VarTransform" modified="No">None</Option>
    <Option name="H" modified="Yes">False</Option>
    <Option name="CreateMVAPdfs" modified="No">False</Option>
    <Option name="IgnoreNegWeightsInTraining" modified="No">False</Option>
    <Option name="NTrees" modified="Yes">200</Option>
    <Option name="MaxDepth" modified="Yes">3</Option>
    <Option name="MinNodeSize" modified="No">0.2%</Option>
    <Option name="nCuts" modified="Yes">20</Option>
    <Option name="BoostType" modified="Yes">Grad</Option>
    <Option name="AdaBoostR2Loss" modified="No">quadratic</Option>
    <Option name="UseBaggedBoost" modified="No">True</Option>
    <Option name="Shrinkage" modified="Yes">1.000000e-01</Option>
    <Option name="AdaBoostBeta" modified="No">5.000000e-01</Option>
    <Option name="UseRandomisedTrees" modified="No">False</Option>
    <Option name="UseNvars" modified="No">4</Option>
    <Option name="UsePoissonNvars" modified="No">True</Option>
    <Option name="BaggedSampleFraction" modified="No">5.000000e-01</Option>
    <Option name="UseYesNoLeaf" modified="No">False</Option>
    <Option name="NegWeightTreatment" modified="No">ignorenegweightsintraining</Option>
    <Option name="Css" modified="No">1.000000e+00</Option>
    <Option name="Cts_sb" modified="No">1.000000e+00</Option>
    <Option name="Ctb_ss" modified="No">1.000000e+00</Option>
    <Option name="Cbb" modified="No">1.000000e+00</Option>
    <Option name="NodePurityLimit" modified="No">5.000000e-01</Option>
    <Option name="SeparationType" modified="No">regressionvariance</Option>
    <Option name="DoBoostMonitor" modified="No">False</Option>
    <Option name="UseFisherCuts" modified="No">False</Option>
    <Option name="MinLinCorrForFisher" modified="No">8.000000e-01</Option>
    <Option name="UseExclusiveVars" modified="No">False</Option>
    <Option name="DoPreselection" modified="No">False</Option>
    <Option name="SigToBkgFraction" modified="No">1.000000e+00</Option>
    <Option name="PruneMethod" modified="Yes">costcomplexity</Option>
    <Option name="PruneStrength" modified="Yes">3.000000e+01</Option>
    <Option name="PruningValFraction" modified="No">5.000000e-01</Option>
    <Option name="nEventsMin" modified="No">0</Option>
    <Option name="UseBaggedGrad" modified="Yes">True</Option>
    <Option name="GradBaggingFraction" modified="Yes">5.000000e-01</Option>
    <Option name="UseNTrainEvents" modified="No">0</Option>
    <Option name="NNodesMax" modified="No">0</Option>
  </Options>
  <Variables NVar="19">
    <Variable VarIndex="0" Expression="Jet_pt" Label="Jet_pt" Title="Jet_pt" Unit="units" Internal="Jet_pt" Type="F" Min="2.00003872e+01" Max="1.69844409e+03"/>
    <Variable VarIndex="1" Expression="Jet_rawPt" Label="Jet_rawPt" Title="Jet_rawPt" Unit="units" Internal="Jet_rawPt" Type="F" Min="1.02460690e+01" Max="1.60554578e+03"/>
    <Variable VarIndex="2" Expression="rho" Label="rho" Title="rho" Unit="units" Internal="rho" Type="F" Min="0.00000000e+00" Max="4.60043182e+01"/>
    <Variable VarIndex="3" Expression="Jet_eta" Label="Jet_eta" Title="Jet_eta" Unit="units" Internal="Jet_eta" Type="F" Min="-4.69119978e+00" Max="4.64725876e+00"/>
    <Variable VarIndex="4" Expression="Jet_mt" Label="Jet_mt" Title="Jet_mt" Unit="units" Internal="Jet_mt" Type="F" Min="2.01217022e+01" Max="1.70335181e+03"/>
    <Variable VarIndex="5" Expression="Jet_leadTrackPt" Label="Jet_leadTrackPt" Title="Jet_leadTrackPt  " Unit="units" Internal="Jet_leadTrackPt" Type="F" Min="0.00000000e+00" Max="4.11500000e+02"/>
    <Variable VarIndex="6" Expression="Jet_leptonPtRel" Label="Jet_leptonPtRel" Title="Jet_leptonPtRel" Unit="units" Internal="Jet_leptonPtRel" Type="F" Min="-9.90000000e+01" Max="4.83250389e+01"/>
    <Variable VarIndex="7" Expression="Jet_leptonPt" Label="Jet_leptonPt" Title="Jet_leptonPt" Unit="units" Internal="Jet_leptonPt" Type="F" Min="-9.90000000e+01" Max="5.14588257e+02"/>
    <Variable VarIndex="8" Expression="Jet_leptonDeltaR" Label="Jet_leptonDeltaR" Title="Jet_leptonDeltaR" Unit="units" Internal="Jet_leptonDeltaR" Type="F" Min="-9.90000000e+01" Max="3.99699330e-01"/>
    <Variable VarIndex="9" Expression="Jet_chEmEF" Label="Jet_chEmEF" Title="Jet_chEmEF " Unit="units" Internal="Jet_chEmEF" Type="F" Min="0.00000000e+00" Max="1.03320396e+00"/>
    <Variable VarIndex="10" Expression="Jet_chHEF" Label="Jet_chHEF" Title="Jet_chHEF" Unit="units" Internal="Jet_chHEF" Type="F" Min="0.00000000e+00" Max="1.66393304e+00"/>
    <Variable VarIndex="11" Expression="Jet_neHEF" Label="Jet_neHEF" Title="Jet_neHEF" Unit="units" Internal="Jet_neHEF" Type="F" Min="0.00000000e+00" Max="1.47613466e+00"/>
    <Variable VarIndex="12" Expression="Jet_neEmEF" Label="Jet_neEmEF" Title="Jet_neEmEF" Unit="units" Internal="Jet_neEmEF" Type="F" Min="0.00000000e+00" Max="1.99218631e+00"/>
    <Variable VarIndex="13" Expression="Jet_chMult" Label="Jet_chMult" Title="Jet_chMult" Unit="units" Internal="Jet_chMult" Type="F" Min="0.00000000e+00" Max="5.60000000e+01"/>
    <Variable VarIndex="14" Expression="Jet_vtxPt" Label="Jet_vtxPt" Title="Jet_vtxPt" Unit="units" Internal="Jet_vtxPt" Type="F" Min="0.00000000e+00" Max="3.58771332e+02"/>
    <Variable VarIndex="15" Expression="Jet_vtxMass" Label="Jet_vtxMass" Title="Jet_vtxMass" Unit="units" Internal="Jet_vtxMass" Type="F" Min="0.00000000e+00" Max="6.49271822e+00"/>
    <Variable VarIndex="16" Expression="Jet_vtx3dL" Label="Jet_vtx3dL" Title="Jet_vtx3dL" Unit="units" Internal="Jet_vtx3dL" Type="F" Min="0.00000000e+00" Max="1.56739798e+01"/>
    <Variable VarIndex="17" Expression="Jet_vtxNtrk" Label="Jet_vtxNtrk" Title="Jet_vtxNtrk" Unit="units" Internal="Jet_vtxNtrk" Type="I" Min="0.00000000e+00" Max="1.20000000e+01"/>
    <Variable VarIndex="18" Expression="Jet_vtx3deL" Label="Jet_vtx3deL" Title="Jet_vtx3deL" Unit="units" Internal="Jet_vtx3deL" Type="F" Min="0.00000000e+00" Max="3.08167511e+02"/>
  </Variables>
  <Spectators NSpec="0"/>
  <Classes NClass="1">
    <Class Name="Regression" Index="0"/>
  </Classes>
  <Targets NTrgt="1">
    <Target TargetIndex="0" Expression="Jet_mcPt" Label="Jet_mcPt" Title="Jet_mcPt" Unit="" Internal="Jet_mcPt" Type="F" Min="2.00013084e+01" Max="1.70960046e+03"/>
  </Targets>
  <Transformations NTransformations="0"/>
  <MVAPdfs/>
  <Weights NTrees="200" AnalysisType="1">
    <BinaryTree type="DecisionTree" boostWeight="6.5198333740234375e+01" itree="0">
      <Node pos="s" depth="0" NCoef="0" IVar="1" Cut="7.2241989135742188e+01" cType="1" res="1.8613895177841187e+00" rms="2.5115633010864258e+01" purity="1.0000000000000000e+00" nType="0">
        <Node pos="l" depth="1" NCoef="0" IVar="1" Cut="4.6477485656738281e+01" cType="1" res="-1.3074221611022949e+01" rms="1.7355352401733398e+01" purity="1.0000000000000000e+00" nType="0">
          <Node pos="l" depth="2" NCoef="0" IVar="1" Cut="3.6662422180175781e+01" cType="1" res="-2.3921438217163086e+01" rms="1.1557439804077148e+01" purity="1.0000000000000000e+00" nType="0">
            <Node pos="l" depth="3" NCoef="0" IVar="-1" Cut="0.0000000000000000e+00" cType="1" res="-3.0049774646759033e+00" rms="9.1563692092895508e+00" purity="1.0000000000000000e+00" nType="-99"/>
            <Node pos="r" depth="3" NCoef="0" IVar="-1" Cut="0.0000000000000000e+00" cType="1" res="-1.7432007789611816e+00" rms="1.1571090698242188e+01" purity="1.0000000000000000e+00" nType="-99"/>
          </Node>
          <Node pos="r" depth="2" NCoef="0" IVar="1" Cut="5.9973201751708984e+01" cType="1" res="1.8839836120605469e-02" rms="1.3787608146667480e+01" purity="1.0000000000000000e+00" nType="0">
            <Node pos="l" depth="3" NCoef="0" IVar="-1" Cut="0.0000000000000000e+00" cType="1" res="-5.5730450153350830e-01" rms="1.2336211204528809e+01" purity="1.0000000000000000e+00" nType="-99"/>
            <Node pos="r" depth="3" NCoef="0" IVar="-1" Cut="0.0000000000000000e+00" cType="1" res="7.6321995258331299e-01" rms="1.2102154731750488e+01" purity="1.0000000000000000e+00" nType="-99"/>
          </Node>
        </Node>
        <Node pos="r" depth="1" NCoef="0" IVar="0" Cut="8.8806312561035156e+01" cType="1" res="2.8902261734008789e+01" rms="9.6140451431274414e+00" purity="1.0000000000000000e+00" nType="0">
          <Node pos="l" depth="2" NCoef="0" IVar="1" Cut="7.8062561035156250e+01" cType="1" res="1.8481517791748047e+01" rms="1.0865644454956055e+01" purity="1.0000000000000000e+00" nType="0">
            <Node pos="l" depth="3" NCoef="0" IVar="-1" Cut="0.0000000000000000e+00" cType="1" res="1.7155699729919434e+00" rms="1.0818554878234863e+01" purity="1.0000000000000000e+00" nType="-99"/>
            <Node pos="r" depth="3" NCoef="0" IVar="-1" Cut="0.0000000000000000e+00" cType="1" res="2.3616399765014648e+00" rms="1.0121963500976562e+01" purity="1.0000000000000000e+00" nType="-99"/>
          </Node>
          <Node pos="r" depth="2" NCoef="0" IVar="1" Cut="1.2952226257324219e+02" cType="1" res="3.1946163177490234e+01" rms="6.6300497055053711e+00" purity="1.0000000000000000e+00" nType="0">
            <Node pos="l" depth="3" NCoef="0" IVar="-1" Cut="0.0000000000000000e+00" cType="1" res="4.3030309677124023e+00" rms="7.5064015388488770e+00" purity="1.0000000000000000e+00" nType="-99"/>
            <Node pos="r" depth="3" NCoef="0" IVar="-1" Cut="0.0000000000000000e+00" cType="1" res="1.0843490600585938e+01" rms="9.2761117219924927e-01" purity="1.0000000000000000e+00" nType="-99"/>
          </Node>
        </Node>
      </Node>
    </BinaryTree>
    <BinaryTree type="DecisionTree" boostWeight="1.0000000000000000e+00" itree="1">
      <Node pos="s" depth="0" NCoef="0" IVar="1" Cut="8.6212722778320312e+01" cType="1" res="4.7459049224853516e+01" rms="5.4882419586181641e+01" purity="1.0000000000000000e+00" nType="0">
        <Node pos="l" depth="1" NCoef="0" IVar="1" Cut="5.0038089752197266e+01" cType="1" res="3.1592136383056641e+01" rms="3.7689422607421875e+01" purity="1.0000000000000000e+00" nType="0">
          <Node pos="l" depth="2" NCoef="0" IVar="1" Cut="3.6773239135742188e+01" cType="1" res="1.7717359542846680e+01" rms="3.2852264404296875e+01" purity="1.0000000000000000e+00" nType="0">
            <Node pos="l" depth="3" NCoef="0" IVar="-1" Cut="0.0000000000000000e+00" cType="1" res="-2.7060987949371338e+00" rms="3.1184572219848633e+01" purity="1.0000000000000000e+00" nType="-99"/>
            <Node pos="r" depth="3" NCoef="0" IVar="-1" Cut="0.0000000000000000e+00" cType="1" res="-1.4342726469039917e+00" rms="3.3344364166259766e+01" purity="1.0000000000000000e+00" nType="-99"/>
          </Node>
          <Node pos="r" depth="2" NCoef="0" IVar="1" Cut="6.8987350463867188e+01" cType="1" res="4.7354476928710938e+01" rms="3.6619453430175781e+01" purity="1.0000000000000000e+00" nType="0">
            <Node pos="l" depth="3" NCoef="0" IVar="-1" Cut="0.0000000000000000e+00" cType="1" res="5.5029135197401047e-02" rms="3.4837192535400391e+01" purity="1.0000000000000000e+00" nType="-99"/>
            <Node pos="r" depth="3" NCoef="0" IVar="-1" Cut="0.0000000000000000e+00" cType="1" res="1.6982445716857910e+00" rms="3.6787235260009766e+01" purity="1.0000000000000000e+00" nType="-99"/>
          </Node>
        </Node>
        <Node pos="r" depth="1" NCoef="0" IVar="1" Cut="1.5856193542480469e+02" cType="1" res="9.5519538879394531e+01" rms="6.8996925354003906e+01" purity="1.0000000000000000e+00" nType="0">
          <Node pos="l" depth="2" NCoef="0" IVar="1" Cut="1.1721847534179688e+02" cType="1" res="8.4858604431152344e+01" rms="4.9348182678222656e+01" purity="1.0000000000000000e+00" nType="0">
            <Node pos="l" depth="3" NCoef="0" IVar="-1" Cut="0.0000000000000000e+00" cType="1" res="3.7828879356384277e+00" rms="4.1925743103027344e+01" purity="1.0000000000000000e+00" nType="-99"/>
            <Node pos="r" depth="3" NCoef="0" IVar="-1" Cut="0.0000000000000000e+00" cType="1" res="7.0102019309997559e+00" rms="5.8117923736572266e+01" purity="1.0000000000000000e+00" nType="-99"/>
          </Node>
          <Node pos="r" depth="2" NCoef="0" IVar="1" Cut="2.9637127685546875e+02" cType="1" res="1.5121183776855469e+02" rms="1.1494631195068359e+02" purity="1.0000000000000000e+00" nType="0">
            <Node pos="l" depth="3" NCoef="0" IVar="-1" Cut="0.0000000000000000e+00" cType="1" res="1.2750229835510254e+01" rms="9.4161460876464844e+01" purity="1.0000000000000000e+00" nType="-99"/>
            <Node pos="r" depth="3" NCoef="0" IVar="-1" Cut="0.0000000000000000e+00" cType="1" res="3.0477668762207031e+01" rms="2.2559877014160156e+02" purity="1.0000000000000000e+00" nType="-99"/>
          </Node>
        </Node>
      </Node>
    </BinaryTree>
    <BinaryTree type="DecisionTree" boostWeight="1.0000000000000000e+00" itree="2">
      <Node pos="s" depth="0" NCoef="0" IVar="1" Cut="8.6212722778320312e+01" cType="1" res="2.9310581207275391e+01" rms="4.9599639892578125e+01" purity="1.0000000000000000e+00" nType="0">
        <Node pos="l" depth="1" NCoef="0" IVar="1" Cut="5.3655548095703125e+01" cType="1" res="1.6449098587036133e+01" rms="3.6335094451904297e+01" purity="1.0000000000000000e+00" nType="0">
          <Node pos="l" depth="2" NCoef="0" IVar="1" Cut="3.9185401916503906e+01" cType="1" res="5.3307948112487793e+00" rms="3.2412708282470703e+01" purity="1.0000000000000000e+00" nType="0">
            <Node pos="l" depth="3" NCoef="0" IVar="-1" Cut="0.0000000000000000e+00" cType="1" res="-2.3464527130126953e+00" rms="3.0512510299682617e+01" purity="1.0000000000000000e+00" nType="-99"/>
            <Node pos="r" depth="3" NCoef="0" IVar="-1" Cut="0.0000000000000000e+00" cType="1" res="-1.0433188676834106e+00" rms="3.3106178283691406e+01" purity="1.0000000000000000e+00" nType="-99"/>
          </Node>
          <Node pos="r" depth="2" NCoef="0" IVar="1" Cut="6.9158981323242188e+01" cType="1" res="3.2484668731689453e+01" rms="3.5689304351806641e+01" purity="1.0000000000000000e+00" nType="0">
            <Node pos="l" depth="3" NCoef="0" IVar="-1" Cut="0.0000000000000000e+00" cType="1" res="2.2173343598842621e-01" rms="3.4121242523193359e+01" purity="1.0000000000000000e+00" nType="-99"/>
            <Node pos="r" depth="3" NCoef="0" IVar="-1" Cut="0.0000000000000000e+00" cType="1" res="1.5086742639541626e+00" rms="3.6041507720947266e+01" purity="1.0000000000000000e+00" nType="-99"/>
          </Node>
        </Node>
        <Node pos="r" depth="1" NCoef="0" IVar="1" Cut="1.5856213378906250e+02" cType="1" res="6.8101692199707031e+01" rms="6.2405410766601562e+01" purity="1.0000000000000000e+00" nType="0">
          <Node pos="l" depth="2" NCoef="0" IVar="1" Cut="1.1377298736572266e+02" cType="1" res="6.1865806579589844e+01" rms="4.7887252807617188e+01" purity="1.0000000000000000e+00" nType="0">
            <Node pos="l" depth="3" NCoef="0" IVar="-1" Cut="0.0000000000000000e+00" cType="1" res="3.2498703002929688e+00" rms="4.0822040557861328e+01" purity="1.0000000000000000e+00" nType="-99"/>
            <Node pos="r" depth="3" NCoef="0" IVar="-1" Cut="0.0000000000000000e+00" cType="1" res="6.1174402236938477e+00" rms="5.6055973052978516e+01" purity="1.0000000000000000e+00" nType="-99"/>
          </Node>
          <Node pos="r" depth="2" NCoef="0" IVar="4" Cut="2.9472039794921875e+02" cType="1" res="1.0147558593750000e+02" rms="1.0555673217773438e+02" purity="1.0000000000000000e+00" nType="0">
            <Node pos="l" depth="3" NCoef="0" IVar="-1" Cut="0.0000000000000000e+00" cType="1" res="1.1368783950805664e+01" rms="8.8749526977539062e+01" purity="1.0000000000000000e+00" nType="-99"/>
            <Node pos="r" depth="3" NCoef="0" IVar="-1" Cut="0.0000000000000000e+00" cType="1" res="2.4153184890747070e+01" rms="1.8267535400390625e+02" purity="1.0000000000000000e+00" nType="-99"/>
          </Node>
        </Node>
      </Node>
    </BinaryTree>
    <BinaryTree type="DecisionTree" boostWeight="1.0000000000000000e+00" itree="3">
      <Node pos="s" depth="0" NCoef="0" IVar="1" Cut="8.6330055236816406e+01" cType="1" res="1.8321491241455078e+01" rms="4.2924678802490234e+01" purity="1.0000000000000000e+00" nType="0">
        <Node pos="l" depth="1" NCoef="0" IVar="1" Cut="5.3775199890136719e+01" cType="1" res="7.5062341690063477e+00" rms="3.2081283569335938e+01" purity="1.0000000000000000e+00" nType="0">
          <Node pos="l" depth="2" NCoef="0" IVar="1" Cut="3.7239181518554688e+01" cType="1" res="-2.6820187568664551e+00" rms="2.7988130569458008e+01" purity="1.0000000000000000e+00" nType="0">
            <Node pos="l" depth="3" NCoef="0" IVar="-1" Cut="0.0000000000000000e+00" cType="1" res="-2.1995542049407959e+00" rms="2.5863805770874023e+01" purity="1.0000000000000000e+00" nType="-99"/>
            <Node pos="r" depth="3" NCoef="0" IVar="-1" Cut="0.0000000000000000e+00" cType="1" res="-1.0266453027725220e+00" rms="2.8638622283935547e+01" purity="1.0000000000000000e+00" nType="-99"/>
          </Node>
          <Node pos="r" depth="2" NCoef="0" IVar="1" Cut="6.6177413940429688e+01" cType="1" res="2.2578554153442383e+01" rms="3.1815307617187500e+01" purity="1.0000000000000000e+00" nType="0">
            <Node pos="l" depth="3" NCoef="0" IVar="-1" Cut="0.0000000000000000e+00" cType="1" res="7.4419774115085602e-02" rms="3.0269762039184570e+01" purity="1.0000000000000000e+00" nType="-99"/>
            <Node pos="r" depth="3" NCoef="0" IVar="-1" Cut="0.0000000000000000e+00" cType="1" res="1.2577577829360962e+00" rms="3.1961868286132812e+01" purity="1.0000000000000000e+00" nType="-99"/>
          </Node>
        </Node>
        <Node pos="r" depth="1" NCoef="0" IVar="1" Cut="1.5867532348632812e+02" cType="1" res="5.1145122528076172e+01" rms="5.3651794433593750e+01" purity="1.0000000000000000e+00" nType="0">
          <Node pos="l" depth="2" NCoef="0" IVar="1" Cut="1.0355590057373047e+02" cType="1" res="4.7071586608886719e+01" rms="4.2034461975097656e+01" purity="1.0000000000000000e+00" nType="0">
            <Node pos="l" depth="3" NCoef="0" IVar="-1" Cut="0.0000000000000000e+00" cType="1" res="2.5131099224090576e+00" rms="3.4964008331298828e+01" purity="1.0000000000000000e+00" nType="-99"/>
            <Node pos="r" depth="3" NCoef="0" IVar="-1" Cut="0.0000000000000000e+00" cType="1" res="4.9744043350219727e+00" rms="4.6055210113525391e+01" purity="1.0000000000000000e+00" nType="-99"/>
          </Node>
          <Node pos="r" depth="2" NCoef="0" IVar="0" Cut="2.9048861694335938e+02" cType="1" res="7.2850166320800781e+01" rms="9.0785644531250000e+01" purity="1.0000000000000000e+00" nType="0">
            <Node pos="l" depth="3" NCoef="0" IVar="-1" Cut="0.0000000000000000e+00" cType="1" res="1.0055844306945801e+01" rms="7.6339065551757812e+01" purity="1.0000000000000000e+00" nType="-99"/>
            <Node pos="r" depth="3" NCoef="0" IVar="-1" Cut="0.0000000000000000e+00" cType="1" res="2.1504558563232422e+01" rms="1.5797950744628906e+02" purity="1.0000000000000000e+00" nType="-99"/>
          </Node>
        </Node>
      </Node>
    </BinaryTree>
    <BinaryTree type="DecisionTree" boostWeight="1.0000000000000000e+00" itree="4">
      <Node pos="s" depth="0" NCoef="0" IVar="1" Cut="8.6830780029296875e+01" cType="1" res="1.1564581871032715e+01" rms="3.6108379364013672e+01" purity="1.0000000000000000e+00" nType="0">
        <Node pos="l" depth="1" NCoef="0" IVar="1" Cut="5.0670883178710938e+01" cType="1" res="2.4718825817108154e+00" rms="2.7506525039672852e+01" purity="1.0000000000000000e+00" nType="0">
          <Node pos="l" depth="2" NCoef="0" IVar="1" Cut="3.3624069213867188e+01" cType="1" res="-8.0729875564575195e+00" rms="2.3089506149291992e+01" purity="1.0000000000000000e+00" nType="0">
            <Node pos="l" depth="3" NCoef="0" IVar="-1" Cut="0.0000000000000000e+00" cType="1" res="-2.1646277904510498e+00" rms="2.0839641571044922e+01" purity="1.0000000000000000e+00" nType="-99"/>
            <Node pos="r" depth="3" NCoef="0" IVar="-1" Cut="0.0000000000000000e+00" cType="1" res="-1.1231014728546143e+00" rms="2.3609348297119141e+01" purity="1.0000000000000000e+00" nType="-99"/>
          </Node>
          <Node pos="r" depth="2" NCoef="0" IVar="1" Cut="6.6168411254882812e+01" cType="1" res="1.4750242233276367e+01" rms="2.7140371322631836e+01" purity="1.0000000000000000e+00" nType="0">
            <Node pos="l" depth="3" NCoef="0" IVar="-1" Cut="0.0000000000000000e+00" cType="1" res="-5.1310099661350250e-02" rms="2.5630990982055664e+01" purity="1.0000000000000000e+00" nType="-99"/>
            <Node pos="r" depth="3" NCoef="0" IVar="-1" Cut="0.0000000000000000e+00" cType="1" res="1.1324013471603394e+00" rms="2.7167501449584961e+01" purity="1.0000000000000000e+00" nType="-99"/>
          </Node>
        </Node>
        <Node pos="r" depth="1" NCoef="0" IVar="0" Cut="1.2773349761962891e+02" cType="1" res="3.9687831878662109e+01" rms="4.4154979705810547e+01" purity="1.0000000000000000e+00" nType="0">
          <Node pos="l" depth="2" NCoef="0" IVar="1" Cut="9.6070854187011719e+01" cType="1" res="3.4210132598876953e+01" rms="3.1118801116943359e+01" purity="1.0000000000000000e+00" nType="0">
            <Node pos="l" depth="3" NCoef="0" IVar="-1" Cut="0.0000000000000000e+00" cType="1" res="1.9859749078750610e+00" rms="2.8884183883666992e+01" purity="1.0000000000000000e+00" nType="-99"/>
            <Node pos="r" depth="3" NCoef="0" IVar="-1" Cut="0.0000000000000000e+00" cType="1" res="3.2705879211425781e+00" rms="3.2148860931396484e+01" purity="1.0000000000000000e+00" nType="-99"/>
          </Node>
          <Node pos="r" depth="2" NCoef="0" IVar="1" Cut="2.3149549865722656e+02" cType="1" res="4.6313190460205078e+01" rms="5.5284278869628906e+01" purity="1.0000000000000000e+00" nType="0">
            <Node pos="l" depth="3" NCoef="0" IVar="-1" Cut="0.0000000000000000e+00" cType="1" res="5.8866400718688965e+00" rms="4.7492763519287109e+01" purity="1.0000000000000000e+00" nType="-99"/>
            <Node pos="r" depth="3" NCoef="0" IVar="-1" Cut="0.0000000000000000e+00" cType="1" res="1.7182426452636719e+01" rms="1.1011026000976562e+02" purity="1.0000000000000000e+00" nType="-99"/>
          </Node>
        </Node>
      </Node>
    </BinaryTree>
    <BinaryTree type="DecisionTree" boostWeight="1.0000000000000000e+00" itree="5">
      <Node pos="s" depth="0" NCoef="0" IVar="1" Cut="8.6839622497558594e+01" cType="1" res="7.3593411445617676e+00" rms="3.0320978164672852e+01" purity="1.0000000000000000e+00" nType="0">
        <Node pos="l" depth="1" NCoef="0" IVar="1" Cut="5.4295730590820312e+01" cType="1" res="-6.2992036342620850e-01" rms="2.3231994628906250e+01" purity="1.0000000000000000e+00" nType="0">
          <Node pos="l" depth="2" NCoef="0" IVar="1" Cut="4.1897865295410156e+01" cType="1" res="-8.9129400253295898e+00" rms="1.9564622879028320e+01" purity="1.0000000000000000e+00" nType="0">
            <Node pos="l" depth="3" NCoef="0" IVar="-1" Cut="0.0000000000000000e+00" cType="1" res="-1.6782132387161255e+00" rms="1.8016038894653320e+01" purity="1.0000000000000000e+00" nType="-99"/>
            <Node pos="r" depth="3" NCoef="0" IVar="-1" Cut="0.0000000000000000e+00" cType="1" res="-6.5089058876037598e-01" rms="2.0237581253051758e+01" purity="1.0000000000000000e+00" nType="-99"/>
          </Node>
          <Node pos="r" depth="2" NCoef="0" IVar="1" Cut="7.1342391967773438e+01" cType="1" res="1.1840037345886230e+01" rms="2.2742565155029297e+01" purity="1.0000000000000000e+00" nType="0">
            <Node pos="l" depth="3" NCoef="0" IVar="-1" Cut="0.0000000000000000e+00" cType="1" res="1.9181312620639801e-01" rms="2.1842668533325195e+01" purity="1.0000000000000000e+00" nType="-99"/>
            <Node pos="r" depth="3" NCoef="0" IVar="-1" Cut="0.0000000000000000e+00" cType="1" res="1.1962105035781860e+00" rms="2.2726539611816406e+01" purity="1.0000000000000000e+00" nType="-99"/>
          </Node>
        </Node>
        <Node pos="r" depth="1" NCoef="0" IVar="4" Cut="1.3340103149414062e+02" cType="1" res="3.2057003021240234e+01" rms="3.5856128692626953e+01" purity="1.0000000000000000e+00" nType="0">
          <Node pos="l" depth="2" NCoef="0" IVar="1" Cut="9.8799758911132812e+01" cType="1" res="2.8333963394165039e+01" rms="2.6288774490356445e+01" purity="1.0000000000000000e+00" nType="0">
            <Node pos="l" depth="3" NCoef="0" IVar="-1" Cut="0.0000000000000000e+00" cType="1" res="1.8589526414871216e+00" rms="2.4588666915893555e+01" purity="1.0000000000000000e+00" nType="-99"/>
            <Node pos="r" depth="3" NCoef="0" IVar="-1" Cut="0.0000000000000000e+00" cType="1" res="3.1040315628051758e+00" rms="2.7241376876831055e+01" purity="1.0000000000000000e+00" nType="-99"/>
          </Node>
          <Node pos="r" depth="2" NCoef="0" IVar="1" Cut="2.3149549865722656e+02" cType="1" res="3.7461620330810547e+01" rms="4.5819614410400391e+01" purity="1.0000000000000000e+00" nType="0">
            <Node pos="l" depth="3" NCoef="0" IVar="-1" Cut="0.0000000000000000e+00" cType="1" res="5.5362663269042969e+00" rms="3.9580619812011719e+01" purity="1.0000000000000000e+00" nType="-99"/>
            <Node pos="r" depth="3" NCoef="0" IVar="-1" Cut="0.0000000000000000e+00" cType="1" res="1.5389372825622559e+01" rms="8.8259979248046875e+01" purity="1.0000000000000000e+00" nType="-99"/>
          </Node>
        </Node>
      </Node>
    </BinaryTree>
    <BinaryTree type="DecisionTree" boostWeight="1.0000000000000000e+00" itree="6">
      <Node pos="s" depth="0" NCoef="0" IVar="1" Cut="6.1060611724853516e+01" cType="1" res="4.8818640708923340e+00" rms="2.5875572204589844e+01" purity="1.0000000000000000e+00" nType="0">
        <Node pos="l" depth="1" NCoef="0" IVar="1" Cut="4.2251972198486328e+01" cType="1" res="-7.8216543197631836e+00" rms="1.7452835083007812e+01" purity="1.0000000000000000e+00" nType="0">
          <Node pos="l" depth="2" NCoef="0" IVar="1" Cut="3.2063888549804688e+01" cType="1" res="-1.3017380714416504e+01" rms="1.5369932174682617e+01" purity="1.0000000000000000e+00" nType="0">
            <Node pos="l" depth="3" NCoef="0" IVar="-1" Cut="0.0000000000000000e+00" cType="1" res="-1.8587739467620850e+00" rms="1.4153490066528320e+01" purity="1.0000000000000000e+00" nType="-99"/>
            <Node pos="r" depth="3" NCoef="0" IVar="-1" Cut="0.0000000000000000e+00" cType="1" res="-1.1573573350906372e+00" rms="1.5913872718811035e+01" purity="1.0000000000000000e+00" nType="-99"/>
          </Node>
          <Node pos="r" depth="2" NCoef="0" IVar="1" Cut="5.2104072570800781e+01" cType="1" res="-1.4074829816818237e+00" rms="1.7735071182250977e+01" purity="1.0000000000000000e+00" nType="0">
            <Node pos="l" depth="3" NCoef="0" IVar="-1" Cut="0.0000000000000000e+00" cType="1" res="-6.3170802593231201e-01" rms="1.7106594085693359e+01" purity="1.0000000000000000e+00" nType="-99"/>
            <Node pos="r" depth="3" NCoef="0" IVar="-1" Cut="0.0000000000000000e+00" cType="1" res="-2.0013958215713501e-01" rms="1.8055620193481445e+01" purity="1.0000000000000000e+00" nType="-99"/>
          </Node>
        </Node>
        <Node pos="r" depth="1" NCoef="0" IVar="1" Cut="1.0808194732666016e+02" cType="1" res="1.9334373474121094e+01" rms="2.6310852050781250e+01" purity="1.0000000000000000e+00" nType="0">
          <Node pos="l" depth="2" NCoef="0" IVar="1" Cut="7.6734336853027344e+01" cType="1" res="1.4730663299560547e+01" rms="2.0408149719238281e+01" purity="1.0000000000000000e+00" nType="0">
            <Node pos="l" depth="3" NCoef="0" IVar="-1" Cut="0.0000000000000000e+00" cType="1" res="5.0137394666671753e-01" rms="1.8794927597045898e+01" purity="1.0000000000000000e+00" nType="-99"/>
            <Node pos="r" depth="3" NCoef="0" IVar="-1" Cut="0.0000000000000000e+00" cType="1" res="1.6454666852951050e+00" rms="2.0467908859252930e+01" purity="1.0000000000000000e+00" nType="-99"/>
          </Node>
          <Node pos="r" depth="2" NCoef="0" IVar="1" Cut="1.9764637756347656e+02" cType="1" res="3.0214113235473633e+01" rms="3.4285797119140625e+01" purity="1.0000000000000000e+00" nType="0">
            <Node pos="l" depth="3" NCoef="0" IVar="-1" Cut="0.0000000000000000e+00" cType="1" res="4.1277465820312500e+00" rms="2.7916568756103516e+01" purity="1.0000000000000000e+00" nType="-99"/>
            <Node pos="r" depth="3" NCoef="0" IVar="-1" Cut="0.0000000000000000e+00" cType="1" res="1.2025454521179199e+01" rms="6.3453067779541016e+01" purity="1.0000000000000000e+00" nType="-99"/>
          </Node>
        </Node>
      </Node>
    </BinaryTree>
    <BinaryTree type="DecisionTree" boostWeight="1.0000000000000000e+00" itree="7">
      <Node pos="s" depth="0" NCoef="0" IVar="1" Cut="7.0452651977539062e+01" cType="1" res="3.2170450687408447e+00" rms="2.1785688400268555e+01" purity="1.0000000000000000e+00" nType="0">
        <Node pos="l" depth="1" NCoef="0" IVar="1" Cut="4.4649822235107422e+01" cType="1" res="-6.0044660568237305e+00" rms="1.5863701820373535e+01" purity="1.0000000000000000e+00" nType="0">
          <Node pos="l" depth="2" NCoef="0" IVar="1" Cut="3.1543535232543945e+01" cType="1" res="-1.2149492263793945e+01" rms="1.3389346122741699e+01" purity="1.0000000000000000e+00" nType="0">
            <Node pos="l" depth="3" NCoef="0" IVar="-1" Cut="0.0000000000000000e+00" cType="1" res="-1.7048393487930298e+00" rms="1.1957184791564941e+01" purity="1.0000000000000000e+00" nType="-99"/>
            <Node pos="r" depth="3" NCoef="0" IVar="-1" Cut="0.0000000000000000e+00" cType="1" res="-1.0229943990707397e+00" rms="1.3762217521667480e+01" purity="1.0000000000000000e+00" nType="-99"/>
          </Node>
          <Node pos="r" depth="2" NCoef="0" IVar="1" Cut="5.6937049865722656e+01" cType="1" res="7.0427995920181274e-01" rms="1.5634796142578125e+01" purity="1.0000000000000000e+00" nType="0">
            <Node pos="l" depth="3" NCoef="0" IVar="-1" Cut="0.0000000000000000e+00" cType="1" res="-4.3483790755271912e-01" rms="1.4909009933471680e+01" purity="1.0000000000000000e+00" nType="-99"/>
            <Node pos="r" depth="3" NCoef="0" IVar="-1" Cut="0.0000000000000000e+00" cType="1" res="2.2423215210437775e-01" rms="1.5547875404357910e+01" purity="1.0000000000000000e+00" nType="-99"/>
          </Node>
        </Node>
        <Node pos="r" depth="1" NCoef="0" IVar="0" Cut="9.5214660644531250e+01" cType="1" res="1.8699129104614258e+01" rms="2.1598184585571289e+01" purity="1.0000000000000000e+00" nType="0">
          <Node pos="l" depth="2" NCoef="0" IVar="1" Cut="7.9532371520996094e+01" cType="1" res="1.1923770904541016e+01" rms="1.6674003601074219e+01" purity="1.0000000000000000e+00" nType="0">
            <Node pos="l" depth="3" NCoef="0" IVar="-1" Cut="0.0000000000000000e+00" cType="1" res="6.8610769510269165e-01" rms="1.6283926010131836e+01" purity="1.0000000000000000e+00" nType="-99"/>
            <Node pos="r" depth="3" NCoef="0" IVar="-1" Cut="0.0000000000000000e+00" cType="1" res="1.2358176708221436e+00" rms="1.6719144821166992e+01" purity="1.0000000000000000e+00" nType="-99"/>
          </Node>
          <Node pos="r" depth="2" NCoef="0" IVar="1" Cut="1.2783283996582031e+02" cType="1" res="2.2508659362792969e+01" rms="2.3067762374877930e+01" purity="1.0000000000000000e+00" nType="0">
            <Node pos="l" depth="3" NCoef="0" IVar="-1" Cut="0.0000000000000000e+00" cType="1" res="2.1070680618286133e+00" rms="1.7963285446166992e+01" purity="1.0000000000000000e+00" nType="-99"/>
            <Node pos="r" depth="3" NCoef="0" IVar="-1" Cut="0.0000000000000000e+00" cType="1" res="5.4202260971069336e+00" rms="2.9898237228393555e+01" purity="1.0000000000000000e+00" nType="-99"/>
          </Node>
        </Node>
      </Node>
    </BinaryTree>
    <BinaryTree type="DecisionTree" boostWeight="1.0000000000000000e+00" itree="8">
      <Node pos="s" depth="0" NCoef="0" IVar="1" Cut="7.0452651977539062e+01" cType="1" res="2.3121314048767090e+00" rms="1.9150323867797852e+01" purity="1.0000000000000000e+00" nType="0">
        <Node pos="l" depth="1" NCoef="0" IVar="1" Cut="4.4649761199951172e+01" cType="1" res="-5.9572424888610840e+00" rms="1.4122757911682129e+01" purity="1.0000000000000000e+00" nType="0">
          <Node pos="l" depth="2" NCoef="0" IVar="1" Cut="2.9905269622802734e+01" cType="1" res="-1.1469665527343750e+01" rms="1.1989413261413574e+01" purity="1.0000000000000000e+00" nType="0">
            <Node pos="l" depth="3" NCoef="0" IVar="-1" Cut="0.0000000000000000e+00" cType="1" res="-1.6235378980636597e+00" rms="1.0365837097167969e+01" purity="1.0000000000000000e+00" nType="-99"/>
            <Node pos="r" depth="3" NCoef="0" IVar="-1" Cut="0.0000000000000000e+00" cType="1" res="-9.5479488372802734e-01" rms="1.2272577285766602e+01" purity="1.0000000000000000e+00" nType="-99"/>
          </Node>
          <Node pos="r" depth="2" NCoef="0" IVar="1" Cut="5.8165660858154297e+01" cType="1" res="4.2728487402200699e-02" rms="1.3820691108703613e+01" purity="1.0000000000000000e+00" nType="0">
            <Node pos="l" depth="3" NCoef="0" IVar="-1" Cut="0.0000000000000000e+00" cType="1" res="-3.8211002945899963e-01" rms="1.3357040405273438e+01" purity="1.0000000000000000e+00" nType="-99"/>
            <Node pos="r" depth="3" NCoef="0" IVar="-1" Cut="0.0000000000000000e+00" cType="1" res="2.3695400357246399e-01" rms="1.3539919853210449e+01" purity="1.0000000000000000e+00" nType="-99"/>
          </Node>
        </Node>
        <Node pos="r" depth="1" NCoef="0" IVar="0" Cut="8.8806312561035156e+01" cType="1" res="1.6196018218994141e+01" rms="1.8439661026000977e+01" purity="1.0000000000000000e+00" nType="0">
          <Node pos="l" depth="2" NCoef="0" IVar="1" Cut="7.6528846740722656e+01" cType="1" res="9.2685461044311523e+00" rms="1.4500580787658691e+01" purity="1.0000000000000000e+00" nType="0">
            <Node pos="l" depth="3" NCoef="0" IVar="-1" Cut="0.0000000000000000e+00" cType="1" res="5.4659420251846313e-01" rms="1.4276063919067383e+01" purity="1.0000000000000000e+00" nType="-99"/>
            <Node pos="r" depth="3" NCoef="0" IVar="-1" Cut="0.0000000000000000e+00" cType="1" res="9.7991657257080078e-01" rms="1.4456464767456055e+01" purity="1.0000000000000000e+00" nType="-99"/>
          </Node>
          <Node pos="r" depth="2" NCoef="0" IVar="1" Cut="1.2787148284912109e+02" cType="1" res="1.8615018844604492e+01" rms="1.9045230865478516e+01" purity="1.0000000000000000e+00" nType="0">
            <Node pos="l" depth="3" NCoef="0" IVar="-1" Cut="0.0000000000000000e+00" cType="1" res="1.7180267572402954e+00" rms="1.5688344001770020e+01" purity="1.0000000000000000e+00" nType="-99"/>
            <Node pos="r" depth="3" NCoef="0" IVar="-1" Cut="0.0000000000000000e+00" cType="1" res="4.8399109840393066e+00" rms="2.4511837005615234e+01" purity="1.0000000000000000e+00" nType="-99"/>
          </Node>
        </Node>
      </Node>
    </BinaryTree>
    <BinaryTree type="DecisionTree" boostWeight="1.0000000000000000e+00" itree="9">
      <Node pos="s" depth="0" NCoef="0" IVar="1" Cut="6.4104873657226562e+01" cType="1" res="1.6533300876617432e+00" rms="1.6913776397705078e+01" purity="1.0000000000000000e+00" nType="0">
        <Node pos="l" depth="1" NCoef="0" IVar="1" Cut="4.3746223449707031e+01" cType="1" res="-6.8859615325927734e+00" rms="1.2369460105895996e+01" purity="1.0000000000000000e+00" nType="0">
          <Node pos="l" depth="2" NCoef="0" IVar="1" Cut="2.9567884445190430e+01" cType="1" res="-1.0931475639343262e+01" rms="1.0728983879089355e+01" purity="1.0000000000000000e+00" nType="0">
            <Node pos="l" depth="3" NCoef="0" IVar="-1" Cut="0.0000000000000000e+00" cType="1" res="-1.4808048009872437e+00" rms="9.1966133117675781e+00" purity="1.0000000000000000e+00" nType="-99"/>
            <Node pos="r" depth="3" NCoef="0" IVar="-1" Cut="0.0000000000000000e+00" cType="1" res="-8.9398568868637085e-01" rms="1.1014336585998535e+01" purity="1.0000000000000000e+00" nType="-99"/>
          </Node>
          <Node pos="r" depth="2" NCoef="0" IVar="6" Cut="-9.3868721008300781e+01" cType="1" res="-1.7689390182495117e+00" rms="1.2411582946777344e+01" purity="1.0000000000000000e+00" nType="0">
            <Node pos="l" depth="3" NCoef="0" IVar="-1" Cut="0.0000000000000000e+00" cType="1" res="-4.2475166916847229e-01" rms="1.1942981719970703e+01" purity="1.0000000000000000e+00" nType="-99"/>
            <Node pos="r" depth="3" NCoef="0" IVar="-1" Cut="0.0000000000000000e+00" cType="1" res="1.1770842969417572e-01" rms="1.2682686805725098e+01" purity="1.0000000000000000e+00" nType="-99"/>
          </Node>
        </Node>
        <Node pos="r" depth="1" NCoef="0" IVar="0" Cut="9.0513488769531250e+01" cType="1" res="1.2719089508056641e+01" rms="1.5542671203613281e+01" purity="1.0000000000000000e+00" nType="0">
          <Node pos="l" depth="2" NCoef="0" IVar="1" Cut="7.7420295715332031e+01" cType="1" res="7.0118169784545898e+00" rms="1.2920454025268555e+01" purity="1.0000000000000000e+00" nType="0">
            <Node pos="l" depth="3" NCoef="0" IVar="-1" Cut="0.0000000000000000e+00" cType="1" res="4.5182958245277405e-01" rms="1.2603591918945312e+01" purity="1.0000000000000000e+00" nType="-99"/>
            <Node pos="r" depth="3" NCoef="0" IVar="-1" Cut="0.0000000000000000e+00" cType="1" res="9.0383625030517578e-01" rms="1.3128951072692871e+01" purity="1.0000000000000000e+00" nType="-99"/>
          </Node>
          <Node pos="r" depth="2" NCoef="0" IVar="1" Cut="1.1506665802001953e+02" cType="1" res="1.6353265762329102e+01" rms="1.5973474502563477e+01" purity="1.0000000000000000e+00" nType="0">
            <Node pos="l" depth="3" NCoef="0" IVar="-1" Cut="0.0000000000000000e+00" cType="1" res="1.3833992481231689e+00" rms="1.3704133987426758e+01" purity="1.0000000000000000e+00" nType="-99"/>
            <Node pos="r" depth="3" NCoef="0" IVar="-1" Cut="0.0000000000000000e+00" cType="1" res="3.6298954486846924e+00" rms="1.7860794067382812e+01" purity="1.0000000000000000e+00" nType="-99"/>
          </Node>
        </Node>
      </Node>
    </BinaryTree>
    <BinaryTree type="DecisionTree" boostWeight="1.0000000000000000e+00" itree="10">
      <Node pos="s" depth="0" NCoef="0" IVar="1" Cut="8.6755287170410156e+01" cType="1" res="1.1753613948822021e+00" rms="1.4907870292663574e+01" purity="1.0000000000000000e+00" nType="0">
        <Node pos="l" depth="1" NCoef="0" IVar="1" Cut="4.6977161407470703e+01" cType="1" res="-3.3137550354003906e+00" rms="1.2538381576538086e+01" purity="1.0000000000000000e+00" nType="0">
          <Node pos="l" depth="2" NCoef="0" IVar="1" Cut="3.1479364395141602e+01" cType="1" res="-9.3870277404785156e+00" rms="1.0247487068176270e+01" purity="1.0000000000000000e+00" nType="0">
            <Node pos="l" depth="3" NCoef="0" IVar="-1" Cut="0.0000000000000000e+00" cType="1" res="-1.2755764722824097e+00" rms="8.9896392822265625e+00" purity="1.0000000000000000e+00" nType="-99"/>
            <Node pos="r" depth="3" NCoef="0" IVar="-1" Cut="0.0000000000000000e+00" cType="1" res="-7.4025273323059082e-01" rms="1.0462196350097656e+01" purity="1.0000000000000000e+00" nType="-99"/>
          </Node>
          <Node pos="r" depth="2" NCoef="0" IVar="1" Cut="6.4024986267089844e+01" cType="1" res="2.1961054801940918e+00" rms="1.1863686561584473e+01" purity="1.0000000000000000e+00" nType="0">
            <Node pos="l" depth="3" NCoef="0" IVar="-1" Cut="0.0000000000000000e+00" cType="1" res="-1.7679551243782043e-01" rms="1.1371368408203125e+01" purity="1.0000000000000000e+00" nType="-99"/>
            <Node pos="r" depth="3" NCoef="0" IVar="-1" Cut="0.0000000000000000e+00" cType="1" res="4.9779355525970459e-01" rms="1.1304122924804688e+01" purity="1.0000000000000000e+00" nType="-99"/>
          </Node>
        </Node>
        <Node pos="r" depth="1" NCoef="0" IVar="4" Cut="1.3136831665039062e+02" cType="1" res="1.4957804679870605e+01" rms="1.3041599273681641e+01" purity="1.0000000000000000e+00" nType="0">
          <Node pos="l" depth="2" NCoef="0" IVar="1" Cut="9.6006004333496094e+01" cType="1" res="1.2990604400634766e+01" rms="1.1707681655883789e+01" purity="1.0000000000000000e+00" nType="0">
            <Node pos="l" depth="3" NCoef="0" IVar="-1" Cut="0.0000000000000000e+00" cType="1" res="8.3935034275054932e-01" rms="1.2437006950378418e+01" purity="1.0000000000000000e+00" nType="-99"/>
            <Node pos="r" depth="3" NCoef="0" IVar="-1" Cut="0.0000000000000000e+00" cType="1" res="1.7849352359771729e+00" rms="1.0746398925781250e+01" purity="1.0000000000000000e+00" nType="-99"/>
          </Node>
          <Node pos="r" depth="2" NCoef="0" IVar="13" Cut="2.6666667461395264e+00" cType="1" res="1.7618921279907227e+01" rms="1.4227634429931641e+01" purity="1.0000000000000000e+00" nType="0">
            <Node pos="l" depth="3" NCoef="0" IVar="-1" Cut="0.0000000000000000e+00" cType="1" res="-1.6786806285381317e-02" rms="1.8569372177124023e+01" purity="1.0000000000000000e+00" nType="-99"/>
            <Node pos="r" depth="3" NCoef="0" IVar="-1" Cut="0.0000000000000000e+00" cType="1" res="3.4731564521789551e+00" rms="1.3967226982116699e+01" purity="1.0000000000000000e+00" nType="-99"/>
          </Node>
        </Node>
      </Node>
    </BinaryTree>
    <BinaryTree type="DecisionTree" boostWeight="1.0000000000000000e+00" itree="11">
      <Node pos="s" depth="0" NCoef="0" IVar="1" Cut="8.6330055236816406e+01" cType="1" res="8.9143157005310059e-01" rms="1.3725400924682617e+01" purity="1.0000000000000000e+00" nType="0">
        <Node pos="l" depth="1" NCoef="0" IVar="1" Cut="5.0158100128173828e+01" cType="1" res="-3.1429884433746338e+00" rms="1.1691373825073242e+01" purity="1.0000000000000000e+00" nType="0">
          <Node pos="l" depth="2" NCoef="0" IVar="1" Cut="3.3105285644531250e+01" cType="1" res="-8.0396451950073242e+00" rms="9.8466405868530273e+00" purity="1.0000000000000000e+00" nType="0">
            <Node pos="l" depth="3" NCoef="0" IVar="-1" Cut="0.0000000000000000e+00" cType="1" res="-1.1126216650009155e+00" rms="8.6739368438720703e+00" purity="1.0000000000000000e+00" nType="-99"/>
            <Node pos="r" depth="3" NCoef="0" IVar="-1" Cut="0.0000000000000000e+00" cType="1" res="-5.9904199838638306e-01" rms="1.0022036552429199e+01" purity="1.0000000000000000e+00" nType="-99"/>
          </Node>
          <Node pos="r" depth="2" NCoef="0" IVar="1" Cut="6.3937820434570312e+01" cType="1" res="2.4156427383422852e+00" rms="1.1120895385742188e+01" purity="1.0000000000000000e+00" nType="0">
            <Node pos="l" depth="3" NCoef="0" IVar="-1" Cut="0.0000000000000000e+00" cType="1" res="-1.1653811484575272e-01" rms="1.0636369705200195e+01" purity="1.0000000000000000e+00" nType="-99"/>
            <Node pos="r" depth="3" NCoef="0" IVar="-1" Cut="0.0000000000000000e+00" cType="1" res="4.5401501655578613e-01" rms="1.0811846733093262e+01" purity="1.0000000000000000e+00" nType="-99"/>
          </Node>
        </Node>
        <Node pos="r" depth="1" NCoef="0" IVar="4" Cut="1.3817434692382812e+02" cType="1" res="1.3145771026611328e+01" rms="1.2075176239013672e+01" purity="1.0000000000000000e+00" nType="0">
          <Node pos="l" depth="2" NCoef="0" IVar="1" Cut="9.5970085144042969e+01" cType="1" res="1.1436811447143555e+01" rms="1.0563962936401367e+01" purity="1.0000000000000000e+00" nType="0">
            <Node pos="l" depth="3" NCoef="0" IVar="-1" Cut="0.0000000000000000e+00" cType="1" res="7.3969364166259766e-01" rms="1.0764493942260742e+01" purity="1.0000000000000000e+00" nType="-99"/>
            <Node pos="r" depth="3" NCoef="0" IVar="-1" Cut="0.0000000000000000e+00" cType="1" res="1.6147987842559814e+00" rms="9.9345817565917969e+00" purity="1.0000000000000000e+00" nType="-99"/>
          </Node>
          <Node pos="r" depth="2" NCoef="0" IVar="13" Cut="2.4285714626312256e+00" cType="1" res="1.6184534072875977e+01" rms="1.3864245414733887e+01" purity="1.0000000000000000e+00" nType="0">
            <Node pos="l" depth="3" NCoef="0" IVar="-1" Cut="0.0000000000000000e+00" cType="1" res="1.2830120325088501e-01" rms="1.3659305572509766e+01" purity="1.0000000000000000e+00" nType="-99"/>
            <Node pos="r" depth="3" NCoef="0" IVar="-1" Cut="0.0000000000000000e+00" cType="1" res="3.5033955574035645e+00" rms="1.3715904235839844e+01" purity="1.0000000000000000e+00" nType="-99"/>
          </Node>
        </Node>
      </Node>
    </BinaryTree>
    <BinaryTree type="DecisionTree" boostWeight="1.0000000000000000e+00" itree="12">
      <Node pos="s" depth="0" NCoef="0" IVar="1" Cut="8.6212722778320312e+01" cType="1" res="6.8267953395843506e-01" rms="1.2624105453491211e+01" purity="1.0000000000000000e+00" nType="0">
        <Node pos="l" depth="1" NCoef="0" IVar="1" Cut="5.7273036956787109e+01" cType="1" res="-2.9512572288513184e+00" rms="1.0885643005371094e+01" purity="1.0000000000000000e+00" nType="0">
          <Node pos="l" depth="2" NCoef="0" IVar="1" Cut="3.4879047393798828e+01" cType="1" res="-6.3197984695434570e+00" rms="9.7045841217041016e+00" purity="1.0000000000000000e+00" nType="0">
            <Node pos="l" depth="3" NCoef="0" IVar="-1" Cut="0.0000000000000000e+00" cType="1" res="-9.6659600734710693e-01" rms="8.5179185867309570e+00" purity="1.0000000000000000e+00" nType="-99"/>
            <Node pos="r" depth="3" NCoef="0" IVar="-1" Cut="0.0000000000000000e+00" cType="1" res="-4.4143155217170715e-01" rms="9.7983446121215820e+00" purity="1.0000000000000000e+00" nType="-99"/>
          </Node>
          <Node pos="r" depth="2" NCoef="0" IVar="1" Cut="7.3810195922851562e+01" cType="1" res="3.3108344078063965e+00" rms="1.0168421745300293e+01" purity="1.0000000000000000e+00" nType="0">
            <Node pos="l" depth="3" NCoef="0" IVar="-1" Cut="0.0000000000000000e+00" cType="1" res="1.3866694271564484e-01" rms="1.0017286300659180e+01" purity="1.0000000000000000e+00" nType="-99"/>
            <Node pos="r" depth="3" NCoef="0" IVar="-1" Cut="0.0000000000000000e+00" cType="1" res="5.8245563507080078e-01" rms="9.9134044647216797e+00" purity="1.0000000000000000e+00" nType="-99"/>
          </Node>
        </Node>
        <Node pos="r" depth="1" NCoef="0" IVar="0" Cut="1.3757963562011719e+02" cType="1" res="1.1668632507324219e+01" rms="1.1059537887573242e+01" purity="1.0000000000000000e+00" nType="0">
          <Node pos="l" depth="2" NCoef="0" IVar="1" Cut="9.2431427001953125e+01" cType="1" res="1.0097047805786133e+01" rms="1.0093882560729980e+01" purity="1.0000000000000000e+00" nType="0">
            <Node pos="l" depth="3" NCoef="0" IVar="-1" Cut="0.0000000000000000e+00" cType="1" res="4.9419808387756348e-01" rms="1.0237490653991699e+01" purity="1.0000000000000000e+00" nType="-99"/>
            <Node pos="r" depth="3" NCoef="0" IVar="-1" Cut="0.0000000000000000e+00" cType="1" res="1.3645873069763184e+00" rms="9.6265439987182617e+00" purity="1.0000000000000000e+00" nType="-99"/>
          </Node>
          <Node pos="r" depth="2" NCoef="0" IVar="13" Cut="2.3333332538604736e+00" cType="1" res="1.4531909942626953e+01" rms="1.2117383956909180e+01" purity="1.0000000000000000e+00" nType="0">
            <Node pos="l" depth="3" NCoef="0" IVar="-1" Cut="0.0000000000000000e+00" cType="1" res="-1.9500149786472321e-01" rms="1.3927285194396973e+01" purity="1.0000000000000000e+00" nType="-99"/>
            <Node pos="r" depth="3" NCoef="0" IVar="-1" Cut="0.0000000000000000e+00" cType="1" res="3.1908590793609619e+00" rms="1.1887757301330566e+01" purity="1.0000000000000000e+00" nType="-99"/>
          </Node>
        </Node>
      </Node>
    </BinaryTree>
    <BinaryTree type="DecisionTree" boostWeight="1.0000000000000000e+00" itree="13">
      <Node pos="s" depth="0" NCoef="0" IVar="1" Cut="7.0452651977539062e+01" cType="1" res="5.5004572868347168e-01" rms="1.1638627052307129e+01" purity="1.0000000000000000e+00" nType="0">
        <Node pos="l" depth="1" NCoef="0" IVar="1" Cut="4.7516735076904297e+01" cType="1" res="-4.1427192687988281e+00" rms="9.8783283233642578e+00" purity="1.0000000000000000e+00" nType="0">
          <Node pos="l" depth="2" NCoef="0" IVar="7" Cut="-9.1889457702636719e+01" cType="1" res="-6.9642953872680664e+00" rms="8.9705896377563477e+00" purity="1.0000000000000000e+00" nType="0">
            <Node pos="l" depth="3" NCoef="0" IVar="-1" Cut="0.0000000000000000e+00" cType="1" res="-8.3710205554962158e-01" rms="8.2126560211181641e+00" purity="1.0000000000000000e+00" nType="-99"/>
            <Node pos="r" depth="3" NCoef="0" IVar="-1" Cut="0.0000000000000000e+00" cType="1" res="-3.0685380101203918e-01" rms="9.9654912948608398e+00" purity="1.0000000000000000e+00" nType="-99"/>
          </Node>
          <Node pos="r" depth="2" NCoef="0" IVar="7" Cut="-9.1109191894531250e+01" cType="1" res="-1.6585001349449158e-01" rms="9.7293548583984375e+00" purity="1.0000000000000000e+00" nType="0">
            <Node pos="l" depth="3" NCoef="0" IVar="-1" Cut="0.0000000000000000e+00" cType="1" res="-1.9701945781707764e-01" rms="9.2409915924072266e+00" purity="1.0000000000000000e+00" nType="-99"/>
            <Node pos="r" depth="3" NCoef="0" IVar="-1" Cut="0.0000000000000000e+00" cType="1" res="3.0475673079490662e-01" rms="1.0057157516479492e+01" purity="1.0000000000000000e+00" nType="-99"/>
          </Node>
        </Node>
        <Node pos="r" depth="1" NCoef="0" IVar="1" Cut="1.2779238891601562e+02" cType="1" res="8.4132442474365234e+00" rms="1.0009651184082031e+01" purity="1.0000000000000000e+00" nType="0">
          <Node pos="l" depth="2" NCoef="0" IVar="1" Cut="9.2296356201171875e+01" cType="1" res="7.0347423553466797e+00" rms="9.8702754974365234e+00" purity="1.0000000000000000e+00" nType="0">
            <Node pos="l" depth="3" NCoef="0" IVar="-1" Cut="0.0000000000000000e+00" cType="1" res="4.3553242087364197e-01" rms="9.9213809967041016e+00" purity="1.0000000000000000e+00" nType="-99"/>
            <Node pos="r" depth="3" NCoef="0" IVar="-1" Cut="0.0000000000000000e+00" cType="1" res="1.2238944768905640e+00" rms="8.8759288787841797e+00" purity="1.0000000000000000e+00" nType="-99"/>
          </Node>
          <Node pos="r" depth="2" NCoef="0" IVar="0" Cut="1.4821907043457031e+02" cType="1" res="1.3207378387451172e+01" rms="8.9575042724609375e+00" purity="1.0000000000000000e+00" nType="0">
            <Node pos="l" depth="3" NCoef="0" IVar="-1" Cut="0.0000000000000000e+00" cType="1" res="8.8724619150161743e-01" rms="1.0057725906372070e+01" purity="1.0000000000000000e+00" nType="-99"/>
            <Node pos="r" depth="3" NCoef="0" IVar="-1" Cut="0.0000000000000000e+00" cType="1" res="3.5319485664367676e+00" rms="8.3431758880615234e+00" purity="1.0000000000000000e+00" nType="-99"/>
          </Node>
        </Node>
      </Node>
    </BinaryTree>
    <BinaryTree type="DecisionTree" boostWeight="1.0000000000000000e+00" itree="14">
      <Node pos="s" depth="0" NCoef="0" IVar="1" Cut="8.6212722778320312e+01" cType="1" res="4.0587186813354492e-01" rms="1.0962517738342285e+01" purity="1.0000000000000000e+00" nType="0">
        <Node pos="l" depth="1" NCoef="0" IVar="1" Cut="4.6420631408691406e+01" cType="1" res="-2.5291008949279785e+00" rms="9.8197393417358398e+00" purity="1.0000000000000000e+00" nType="0">
          <Node pos="l" depth="2" NCoef="0" IVar="7" Cut="-9.2040077209472656e+01" cType="1" res="-6.4807510375976562e+00" rms="8.5472202301025391e+00" purity="1.0000000000000000e+00" nType="0">
            <Node pos="l" depth="3" NCoef="0" IVar="-1" Cut="0.0000000000000000e+00" cType="1" res="-7.6810956001281738e-01" rms="7.8367357254028320e+00" purity="1.0000000000000000e+00" nType="-99"/>
            <Node pos="r" depth="3" NCoef="0" IVar="-1" Cut="0.0000000000000000e+00" cType="1" res="-3.0920949578285217e-01" rms="9.5149478912353516e+00" purity="1.0000000000000000e+00" nType="-99"/>
          </Node>
          <Node pos="r" depth="2" NCoef="0" IVar="1" Cut="6.1579521179199219e+01" cType="1" res="9.6135330200195312e-01" rms="9.5443964004516602e+00" purity="1.0000000000000000e+00" nType="0">
            <Node pos="l" depth="3" NCoef="0" IVar="-1" Cut="0.0000000000000000e+00" cType="1" res="-1.7575562000274658e-01" rms="9.2009811401367188e+00" purity="1.0000000000000000e+00" nType="-99"/>
            <Node pos="r" depth="3" NCoef="0" IVar="-1" Cut="0.0000000000000000e+00" cType="1" res="3.0102249979972839e-01" rms="9.3301410675048828e+00" purity="1.0000000000000000e+00" nType="-99"/>
          </Node>
        </Node>
        <Node pos="r" depth="1" NCoef="0" IVar="1" Cut="1.5856210327148438e+02" cType="1" res="9.2978630065917969e+00" rms="9.3254842758178711e+00" purity="1.0000000000000000e+00" nType="0">
          <Node pos="l" depth="2" NCoef="0" IVar="1" Cut="9.9992835998535156e+01" cType="1" res="8.3472356796264648e+00" rms="9.3788776397705078e+00" purity="1.0000000000000000e+00" nType="0">
            <Node pos="l" depth="3" NCoef="0" IVar="-1" Cut="0.0000000000000000e+00" cType="1" res="5.4597568511962891e-01" rms="9.3893909454345703e+00" purity="1.0000000000000000e+00" nType="-99"/>
            <Node pos="r" depth="3" NCoef="0" IVar="-1" Cut="0.0000000000000000e+00" cType="1" res="1.3180021047592163e+00" rms="8.9502763748168945e+00" purity="1.0000000000000000e+00" nType="-99"/>
          </Node>
          <Node pos="r" depth="2" NCoef="0" IVar="0" Cut="2.1620114135742188e+02" cType="1" res="1.4287197113037109e+01" rms="7.2171020507812500e+00" purity="1.0000000000000000e+00" nType="0">
            <Node pos="l" depth="3" NCoef="0" IVar="-1" Cut="0.0000000000000000e+00" cType="1" res="3.2954955101013184e+00" rms="7.1777420043945312e+00" purity="1.0000000000000000e+00" nType="-99"/>
            <Node pos="r" depth="3" NCoef="0" IVar="-1" Cut="0.0000000000000000e+00" cType="1" res="7.9952697753906250e+00" rms="7.2353811264038086e+00" purity="1.0000000000000000e+00" nType="-99"/>
          </Node>
        </Node>
      </Node>
    </BinaryTree>
    <BinaryTree type="DecisionTree" boostWeight="1.0000000000000000e+00" itree="15">
      <Node pos="s" depth="0" NCoef="0" IVar="1" Cut="8.6830780029296875e+01" cType="1" res="3.5520076751708984e-01" rms="1.0307570457458496e+01" purity="1.0000000000000000e+00" nType="0">
        <Node pos="l" depth="1" NCoef="0" IVar="1" Cut="4.7054504394531250e+01" cType="1" res="-2.2284171581268311e+00" rms="9.4333314895629883e+00" purity="1.0000000000000000e+00" nType="0">
          <Node pos="l" depth="2" NCoef="0" IVar="1" Cut="2.8113660812377930e+01" cType="1" res="-5.7319779396057129e+00" rms="8.3835525512695312e+00" purity="1.0000000000000000e+00" nType="0">
            <Node pos="l" depth="3" NCoef="0" IVar="-1" Cut="0.0000000000000000e+00" cType="1" res="-9.5637041330337524e-01" rms="7.2563343048095703e+00" purity="1.0000000000000000e+00" nType="-99"/>
            <Node pos="r" depth="3" NCoef="0" IVar="-1" Cut="0.0000000000000000e+00" cType="1" res="-4.5689228177070618e-01" rms="8.4440631866455078e+00" purity="1.0000000000000000e+00" nType="-99"/>
          </Node>
          <Node pos="r" depth="2" NCoef="0" IVar="1" Cut="6.2207084655761719e+01" cType="1" res="9.4912505149841309e-01" rms="9.2044334411621094e+00" purity="1.0000000000000000e+00" nType="0">
            <Node pos="l" depth="3" NCoef="0" IVar="-1" Cut="0.0000000000000000e+00" cType="1" res="-1.4844778180122375e-01" rms="8.9246940612792969e+00" purity="1.0000000000000000e+00" nType="-99"/>
            <Node pos="r" depth="3" NCoef="0" IVar="-1" Cut="0.0000000000000000e+00" cType="1" res="2.7757546305656433e-01" rms="9.0359268188476562e+00" purity="1.0000000000000000e+00" nType="-99"/>
          </Node>
        </Node>
        <Node pos="r" depth="1" NCoef="0" IVar="1" Cut="1.5915090942382812e+02" cType="1" res="8.3248558044433594e+00" rms="8.6819581985473633e+00" purity="1.0000000000000000e+00" nType="0">
          <Node pos="l" depth="2" NCoef="0" IVar="1" Cut="1.0060604095458984e+02" cType="1" res="7.3740119934082031e+00" rms="8.8124876022338867e+00" purity="1.0000000000000000e+00" nType="0">
            <Node pos="l" depth="3" NCoef="0" IVar="-1" Cut="0.0000000000000000e+00" cType="1" res="5.0164127349853516e-01" rms="9.0971384048461914e+00" purity="1.0000000000000000e+00" nType="-99"/>
            <Node pos="r" depth="3" NCoef="0" IVar="-1" Cut="0.0000000000000000e+00" cType="1" res="1.1720793247222900e+00" rms="8.3024988174438477e+00" purity="1.0000000000000000e+00" nType="-99"/>
          </Node>
          <Node pos="r" depth="2" NCoef="0" IVar="0" Cut="2.1638571166992188e+02" cType="1" res="1.3348556518554688e+01" rms="5.7703680992126465e+00" purity="1.0000000000000000e+00" nType="0">
            <Node pos="l" depth="3" NCoef="0" IVar="-1" Cut="0.0000000000000000e+00" cType="1" res="3.0473065376281738e+00" rms="5.9227852821350098e+00" purity="1.0000000000000000e+00" nType="-99"/>
            <Node pos="r" depth="3" NCoef="0" IVar="-1" Cut="0.0000000000000000e+00" cType="1" res="7.1814498901367188e+00" rms="5.4790158271789551e+00" purity="1.0000000000000000e+00" nType="-99"/>
          </Node>
        </Node>
      </Node>
    </BinaryTree>
    <BinaryTree type="DecisionTree" boostWeight="1.0000000000000000e+00" itree="16">
      <Node pos="s" depth="0" NCoef="0" IVar="1" Cut="8.6668426513671875e+01" cType="1" res="2.8165295720100403e-01" rms="9.8900289535522461e+00" purity="1.0000000000000000e+00" nType="0">
        <Node pos="l" depth="1" NCoef="0" IVar="1" Cut="4.6888259887695312e+01" cType="1" res="-2.0652782917022705e+00" rms="9.1157436370849609e+00" purity="1.0000000000000000e+00" nType="0">
          <Node pos="l" depth="2" NCoef="0" IVar="6" Cut="-9.4005836486816406e+01" cType="1" res="-5.2213821411132812e+00" rms="8.1963710784912109e+00" purity="1.0000000000000000e+00" nType="0">
            <Node pos="l" depth="3" NCoef="0" IVar="-1" Cut="0.0000000000000000e+00" cType="1" res="-6.3733839988708496e-01" rms="7.6048989295959473e+00" purity="1.0000000000000000e+00" nType="-99"/>
            <Node pos="r" depth="3" NCoef="0" IVar="-1" Cut="0.0000000000000000e+00" cType="1" res="-2.0846852660179138e-01" rms="8.9877109527587891e+00" purity="1.0000000000000000e+00" nType="-99"/>
          </Node>
          <Node pos="r" depth="2" NCoef="0" IVar="1" Cut="6.2042758941650391e+01" cType="1" res="7.8113102912902832e-01" rms="8.9646902084350586e+00" purity="1.0000000000000000e+00" nType="0">
            <Node pos="l" depth="3" NCoef="0" IVar="-1" Cut="0.0000000000000000e+00" cType="1" res="-1.3696914911270142e-01" rms="8.7508535385131836e+00" purity="1.0000000000000000e+00" nType="-99"/>
            <Node pos="r" depth="3" NCoef="0" IVar="-1" Cut="0.0000000000000000e+00" cType="1" res="2.4098509550094604e-01" rms="8.8292846679687500e+00" purity="1.0000000000000000e+00" nType="-99"/>
          </Node>
        </Node>
        <Node pos="r" depth="1" NCoef="0" IVar="1" Cut="1.5899674987792969e+02" cType="1" res="7.4806938171386719e+00" rms="8.6157283782958984e+00" purity="1.0000000000000000e+00" nType="0">
          <Node pos="l" depth="2" NCoef="0" IVar="1" Cut="1.0044571685791016e+02" cType="1" res="6.5317769050598145e+00" rms="8.6828393936157227e+00" purity="1.0000000000000000e+00" nType="0">
            <Node pos="l" depth="3" NCoef="0" IVar="-1" Cut="0.0000000000000000e+00" cType="1" res="4.5782005786895752e-01" rms="8.8770713806152344e+00" purity="1.0000000000000000e+00" nType="-99"/>
            <Node pos="r" depth="3" NCoef="0" IVar="-1" Cut="0.0000000000000000e+00" cType="1" res="1.0459353923797607e+00" rms="8.2875223159790039e+00" purity="1.0000000000000000e+00" nType="-99"/>
          </Node>
          <Node pos="r" depth="2" NCoef="0" IVar="4" Cut="2.2041459655761719e+02" cType="1" res="1.2500272750854492e+01" rms="6.1749844551086426e+00" purity="1.0000000000000000e+00" nType="0">
            <Node pos="l" depth="3" NCoef="0" IVar="-1" Cut="0.0000000000000000e+00" cType="1" res="2.7289502620697021e+00" rms="5.3169755935668945e+00" purity="1.0000000000000000e+00" nType="-99"/>
            <Node pos="r" depth="3" NCoef="0" IVar="-1" Cut="0.0000000000000000e+00" cType="1" res="6.6032347679138184e+00" rms="7.1432638168334961e+00" purity="1.0000000000000000e+00" nType="-99"/>
          </Node>
        </Node>
      </Node>
    </BinaryTree>
    <BinaryTree type="DecisionTree" boostWeight="1.0000000000000000e+00" itree="17">
      <Node pos="s" depth="0" NCoef="0" IVar="1" Cut="5.9916027069091797e+01" cType="1" res="2.3649767041206360e-01" rms="9.5099496841430664e+00" purity="1.0000000000000000e+00" nType="0">
        <Node pos="l" depth="1" NCoef="0" IVar="1" Cut="4.0993961334228516e+01" cType="1" res="-3.5953640937805176e+00" rms="8.3540897369384766e+00" purity="1.0000000000000000e+00" nType="0">
          <Node pos="l" depth="2" NCoef="0" IVar="6" Cut="-9.4082832336425781e+01" cType="1" res="-5.3447875976562500e+00" rms="7.8649835586547852e+00" purity="1.0000000000000000e+00" nType="0">
            <Node pos="l" depth="3" NCoef="0" IVar="-1" Cut="0.0000000000000000e+00" cType="1" res="-6.3967096805572510e-01" rms="7.2722759246826172e+00" purity="1.0000000000000000e+00" nType="-99"/>
            <Node pos="r" depth="3" NCoef="0" IVar="-1" Cut="0.0000000000000000e+00" cType="1" res="-2.5734826922416687e-01" rms="8.7941436767578125e+00" purity="1.0000000000000000e+00" nType="-99"/>
          </Node>
          <Node pos="r" depth="2" NCoef="0" IVar="8" Cut="-9.4266693115234375e+01" cType="1" res="-1.6074209213256836e+00" rms="8.4484071731567383e+00" purity="1.0000000000000000e+00" nType="0">
            <Node pos="l" depth="3" NCoef="0" IVar="-1" Cut="0.0000000000000000e+00" cType="1" res="-2.8774052858352661e-01" rms="8.0018100738525391e+00" purity="1.0000000000000000e+00" nType="-99"/>
            <Node pos="r" depth="3" NCoef="0" IVar="-1" Cut="0.0000000000000000e+00" cType="1" res="1.0269410163164139e-01" rms="8.8824787139892578e+00" purity="1.0000000000000000e+00" nType="-99"/>
          </Node>
        </Node>
        <Node pos="r" depth="1" NCoef="0" IVar="1" Cut="1.0722097778320312e+02" cType="1" res="4.3837890625000000e+00" rms="8.9272232055664062e+00" purity="1.0000000000000000e+00" nType="0">
          <Node pos="l" depth="2" NCoef="0" IVar="7" Cut="-8.9588645935058594e+01" cType="1" res="2.7137234210968018e+00" rms="8.7529211044311523e+00" purity="1.0000000000000000e+00" nType="0">
            <Node pos="l" depth="3" NCoef="0" IVar="-1" Cut="0.0000000000000000e+00" cType="1" res="1.2351963669061661e-01" rms="8.6952447891235352e+00" purity="1.0000000000000000e+00" nType="-99"/>
            <Node pos="r" depth="3" NCoef="0" IVar="-1" Cut="0.0000000000000000e+00" cType="1" res="6.3918787240982056e-01" rms="8.4431791305541992e+00" purity="1.0000000000000000e+00" nType="-99"/>
          </Node>
          <Node pos="r" depth="2" NCoef="0" IVar="1" Cut="1.5227351379394531e+02" cType="1" res="8.3975667953491211e+00" rms="8.0179843902587891e+00" purity="1.0000000000000000e+00" nType="0">
            <Node pos="l" depth="3" NCoef="0" IVar="-1" Cut="0.0000000000000000e+00" cType="1" res="9.3817448616027832e-01" rms="8.5616130828857422e+00" purity="1.0000000000000000e+00" nType="-99"/>
            <Node pos="r" depth="3" NCoef="0" IVar="-1" Cut="0.0000000000000000e+00" cType="1" res="3.3241634368896484e+00" rms="5.4735603332519531e+00" purity="1.0000000000000000e+00" nType="-99"/>
          </Node>
        </Node>
      </Node>
    </BinaryTree>
    <BinaryTree type="DecisionTree" boostWeight="1.0000000000000000e+00" itree="18">
      <Node pos="s" depth="0" NCoef="0" IVar="1" Cut="7.0908355712890625e+01" cType="1" res="1.6249978542327881e-01" rms="9.2000961303710938e+00" purity="1.0000000000000000e+00" nType="0">
        <Node pos="l" depth="1" NCoef="0" IVar="1" Cut="4.2249397277832031e+01" cType="1" res="-2.5653445720672607e+00" rms="8.3464679718017578e+00" purity="1.0000000000000000e+00" nType="0">
          <Node pos="l" depth="2" NCoef="0" IVar="1" Cut="2.7237298965454102e+01" cType="1" res="-4.7735681533813477e+00" rms="7.7349181175231934e+00" purity="1.0000000000000000e+00" nType="0">
            <Node pos="l" depth="3" NCoef="0" IVar="-1" Cut="0.0000000000000000e+00" cType="1" res="-8.0853903293609619e-01" rms="6.8206124305725098e+00" purity="1.0000000000000000e+00" nType="-99"/>
            <Node pos="r" depth="3" NCoef="0" IVar="-1" Cut="0.0000000000000000e+00" cType="1" res="-3.7484151124954224e-01" rms="7.7900180816650391e+00" purity="1.0000000000000000e+00" nType="-99"/>
          </Node>
          <Node pos="r" depth="2" NCoef="0" IVar="7" Cut="-9.1109191894531250e+01" cType="1" res="-6.4493072032928467e-01" rms="8.3837699890136719e+00" purity="1.0000000000000000e+00" nType="0">
            <Node pos="l" depth="3" NCoef="0" IVar="-1" Cut="0.0000000000000000e+00" cType="1" res="-2.0293320715427399e-01" rms="8.0317716598510742e+00" purity="1.0000000000000000e+00" nType="-99"/>
            <Node pos="r" depth="3" NCoef="0" IVar="-1" Cut="0.0000000000000000e+00" cType="1" res="1.8274797499179840e-01" rms="8.6542177200317383e+00" purity="1.0000000000000000e+00" nType="-99"/>
          </Node>
        </Node>
        <Node pos="r" depth="1" NCoef="0" IVar="0" Cut="1.5139567565917969e+02" cType="1" res="4.8443918228149414e+00" rms="8.6981534957885742e+00" purity="1.0000000000000000e+00" nType="0">
          <Node pos="l" depth="2" NCoef="0" IVar="1" Cut="9.3673782348632812e+01" cType="1" res="3.8686199188232422e+00" rms="8.6577262878417969e+00" purity="1.0000000000000000e+00" nType="0">
            <Node pos="l" depth="3" NCoef="0" IVar="-1" Cut="0.0000000000000000e+00" cType="1" res="2.6545453071594238e-01" rms="8.6567611694335938e+00" purity="1.0000000000000000e+00" nType="-99"/>
            <Node pos="r" depth="3" NCoef="0" IVar="-1" Cut="0.0000000000000000e+00" cType="1" res="7.0626670122146606e-01" rms="8.3662023544311523e+00" purity="1.0000000000000000e+00" nType="-99"/>
          </Node>
          <Node pos="r" depth="2" NCoef="0" IVar="13" Cut="2.2857143878936768e+00" cType="1" res="9.4046888351440430e+00" rms="7.3274092674255371e+00" purity="1.0000000000000000e+00" nType="0">
            <Node pos="l" depth="3" NCoef="0" IVar="-1" Cut="0.0000000000000000e+00" cType="1" res="-9.8495554924011230e-01" rms="1.0795591354370117e+01" purity="1.0000000000000000e+00" nType="-99"/>
            <Node pos="r" depth="3" NCoef="0" IVar="-1" Cut="0.0000000000000000e+00" cType="1" res="2.3858742713928223e+00" rms="6.7607450485229492e+00" purity="1.0000000000000000e+00" nType="-99"/>
          </Node>
        </Node>
      </Node>
    </BinaryTree>
    <BinaryTree type="DecisionTree" boostWeight="1.0000000000000000e+00" itree="19">
      <Node pos="s" depth="0" NCoef="0" IVar="1" Cut="8.7073120117187500e+01" cType="1" res="1.5940096974372864e-01" rms="8.9552507400512695e+00" purity="1.0000000000000000e+00" nType="0">
        <Node pos="l" depth="1" NCoef="0" IVar="1" Cut="4.3686965942382812e+01" cType="1" res="-1.5945080518722534e+00" rms="8.4052772521972656e+00" purity="1.0000000000000000e+00" nType="0">
          <Node pos="l" depth="2" NCoef="0" IVar="1" Cut="2.6643514633178711e+01" cType="1" res="-4.1726336479187012e+00" rms="7.6476583480834961e+00" purity="1.0000000000000000e+00" nType="0">
            <Node pos="l" depth="3" NCoef="0" IVar="-1" Cut="0.0000000000000000e+00" cType="1" res="-7.3841655254364014e-01" rms="6.7915334701538086e+00" purity="1.0000000000000000e+00" nType="-99"/>
            <Node pos="r" depth="3" NCoef="0" IVar="-1" Cut="0.0000000000000000e+00" cType="1" res="-3.3951017260551453e-01" rms="7.6690821647644043e+00" purity="1.0000000000000000e+00" nType="-99"/>
          </Node>
          <Node pos="r" depth="2" NCoef="0" IVar="7" Cut="-8.9471870422363281e+01" cType="1" res="2.5452157855033875e-01" rms="8.4371395111083984e+00" purity="1.0000000000000000e+00" nType="0">
            <Node pos="l" depth="3" NCoef="0" IVar="-1" Cut="0.0000000000000000e+00" cType="1" res="-1.0909684002399445e-01" rms="8.1805906295776367e+00" purity="1.0000000000000000e+00" nType="-99"/>
            <Node pos="r" depth="3" NCoef="0" IVar="-1" Cut="0.0000000000000000e+00" cType="1" res="2.7724003791809082e-01" rms="8.5605010986328125e+00" purity="1.0000000000000000e+00" nType="-99"/>
          </Node>
        </Node>
        <Node pos="r" depth="1" NCoef="0" IVar="1" Cut="1.5938211059570312e+02" cType="1" res="5.6134777069091797e+00" rms="8.4008455276489258e+00" purity="1.0000000000000000e+00" nType="0">
          <Node pos="l" depth="2" NCoef="0" IVar="1" Cut="1.4216481018066406e+02" cType="1" res="4.7439818382263184e+00" rms="8.5111694335937500e+00" purity="1.0000000000000000e+00" nType="0">
            <Node pos="l" depth="3" NCoef="0" IVar="-1" Cut="0.0000000000000000e+00" cType="1" res="5.4258215427398682e-01" rms="8.5450372695922852e+00" purity="1.0000000000000000e+00" nType="-99"/>
            <Node pos="r" depth="3" NCoef="0" IVar="-1" Cut="0.0000000000000000e+00" cType="1" res="1.4557961225509644e+00" rms="7.0802764892578125e+00" purity="1.0000000000000000e+00" nType="-99"/>
          </Node>
          <Node pos="r" depth="2" NCoef="0" IVar="4" Cut="2.1707780456542969e+02" cType="1" res="1.0249950408935547e+01" rms="5.9242553710937500e+00" purity="1.0000000000000000e+00" nType="0">
            <Node pos="l" depth="3" NCoef="0" IVar="-1" Cut="0.0000000000000000e+00" cType="1" res="1.8556851148605347e+00" rms="7.0176415443420410e+00" purity="1.0000000000000000e+00" nType="-99"/>
            <Node pos="r" depth="3" NCoef="0" IVar="-1" Cut="0.0000000000000000e+00" cType="1" res="5.3165969848632812e+00" rms="3.4269773960113525e+00" purity="1.0000000000000000e+00" nType="-99"/>
          </Node>
        </Node>
      </Node>
    </BinaryTree>
    <BinaryTree type="DecisionTree" boostWeight="1.0000000000000000e+00" itree="20">
      <Node pos="s" depth="0" NCoef="0" IVar="1" Cut="8.6212722778320312e+01" cType="1" res="1.2784065306186676e-01" rms="8.6986255645751953e+00" purity="1.0000000000000000e+00" nType="0">
        <Node pos="l" depth="1" NCoef="0" IVar="1" Cut="4.2803134918212891e+01" cType="1" res="-1.4387435913085938e+00" rms="8.2048454284667969e+00" purity="1.0000000000000000e+00" nType="0">
          <Node pos="l" depth="2" NCoef="0" IVar="1" Cut="2.7299697875976562e+01" cType="1" res="-3.7960464954376221e+00" rms="7.5474548339843750e+00" purity="1.0000000000000000e+00" nType="0">
            <Node pos="l" depth="3" NCoef="0" IVar="-1" Cut="0.0000000000000000e+00" cType="1" res="-6.4481562376022339e-01" rms="6.8369522094726562e+00" purity="1.0000000000000000e+00" nType="-99"/>
            <Node pos="r" depth="3" NCoef="0" IVar="-1" Cut="0.0000000000000000e+00" cType="1" res="-3.0042392015457153e-01" rms="7.5793480873107910e+00" purity="1.0000000000000000e+00" nType="-99"/>
          </Node>
          <Node pos="r" depth="2" NCoef="0" IVar="7" Cut="-8.9382843017578125e+01" cType="1" res="1.3999381661415100e-01" rms="8.2486829757690430e+00" purity="1.0000000000000000e+00" nType="0">
            <Node pos="l" depth="3" NCoef="0" IVar="-1" Cut="0.0000000000000000e+00" cType="1" res="-1.0700140148401260e-01" rms="7.9828357696533203e+00" purity="1.0000000000000000e+00" nType="-99"/>
            <Node pos="r" depth="3" NCoef="0" IVar="-1" Cut="0.0000000000000000e+00" cType="1" res="2.3535095155239105e-01" rms="8.4415988922119141e+00" purity="1.0000000000000000e+00" nType="-99"/>
          </Node>
        </Node>
        <Node pos="r" depth="1" NCoef="0" IVar="1" Cut="1.5856204223632812e+02" cType="1" res="4.8760895729064941e+00" rms="8.4249544143676758e+00" purity="1.0000000000000000e+00" nType="0">
          <Node pos="l" depth="2" NCoef="0" IVar="1" Cut="9.6546989440917969e+01" cType="1" res="4.0229096412658691e+00" rms="8.4811334609985352e+00" purity="1.0000000000000000e+00" nType="0">
            <Node pos="l" depth="3" NCoef="0" IVar="-1" Cut="0.0000000000000000e+00" cType="1" res="2.3231483995914459e-01" rms="8.5794744491577148e+00" purity="1.0000000000000000e+00" nType="-99"/>
            <Node pos="r" depth="3" NCoef="0" IVar="-1" Cut="0.0000000000000000e+00" cType="1" res="6.5291798114776611e-01" rms="8.3239078521728516e+00" purity="1.0000000000000000e+00" nType="-99"/>
          </Node>
          <Node pos="r" depth="2" NCoef="0" IVar="0" Cut="2.1946176147460938e+02" cType="1" res="9.3960466384887695e+00" rms="6.4546027183532715e+00" purity="1.0000000000000000e+00" nType="0">
            <Node pos="l" depth="3" NCoef="0" IVar="-1" Cut="0.0000000000000000e+00" cType="1" res="1.6647123098373413e+00" rms="7.5077147483825684e+00" purity="1.0000000000000000e+00" nType="-99"/>
            <Node pos="r" depth="3" NCoef="0" IVar="-1" Cut="0.0000000000000000e+00" cType="1" res="4.9402365684509277e+00" rms="3.2796306610107422e+00" purity="1.0000000000000000e+00" nType="-99"/>
          </Node>
        </Node>
      </Node>
    </BinaryTree>
    <BinaryTree type="DecisionTree" boostWeight="1.0000000000000000e+00" itree="21">
      <Node pos="s" depth="0" NCoef="0" IVar="1" Cut="8.6212722778320312e+01" cType="1" res="1.5818853676319122e-01" rms="8.5446920394897461e+00" purity="1.0000000000000000e+00" nType="0">
        <Node pos="l" depth="1" NCoef="0" IVar="1" Cut="5.7272708892822266e+01" cType="1" res="-1.2727645635604858e+00" rms="8.0741920471191406e+00" purity="1.0000000000000000e+00" nType="0">
          <Node pos="l" depth="2" NCoef="0" IVar="1" Cut="2.8160963058471680e+01" cType="1" res="-2.5702166557312012e+00" rms="7.7094869613647461e+00" purity="1.0000000000000000e+00" nType="0">
            <Node pos="l" depth="3" NCoef="0" IVar="-1" Cut="0.0000000000000000e+00" cType="1" res="-5.6384354829788208e-01" rms="6.9053902626037598e+00" purity="1.0000000000000000e+00" nType="-99"/>
            <Node pos="r" depth="3" NCoef="0" IVar="-1" Cut="0.0000000000000000e+00" cType="1" res="-2.1742667257785797e-01" rms="7.7196927070617676e+00" purity="1.0000000000000000e+00" nType="-99"/>
          </Node>
          <Node pos="r" depth="2" NCoef="0" IVar="8" Cut="-9.4266693115234375e+01" cType="1" res="1.1578361988067627e+00" rms="8.1801576614379883e+00" purity="1.0000000000000000e+00" nType="0">
            <Node pos="l" depth="3" NCoef="0" IVar="-1" Cut="0.0000000000000000e+00" cType="1" res="1.8151041120290756e-02" rms="7.9920520782470703e+00" purity="1.0000000000000000e+00" nType="-99"/>
            <Node pos="r" depth="3" NCoef="0" IVar="-1" Cut="0.0000000000000000e+00" cType="1" res="3.7756520509719849e-01" rms="8.2348728179931641e+00" purity="1.0000000000000000e+00" nType="-99"/>
          </Node>
        </Node>
        <Node pos="r" depth="1" NCoef="0" IVar="4" Cut="2.0698355102539062e+02" cType="1" res="4.4603209495544434e+00" rms="8.4767618179321289e+00" purity="1.0000000000000000e+00" nType="0">
          <Node pos="l" depth="2" NCoef="0" IVar="1" Cut="1.4290371704101562e+02" cType="1" res="3.8982024192810059e+00" rms="8.5109291076660156e+00" purity="1.0000000000000000e+00" nType="0">
            <Node pos="l" depth="3" NCoef="0" IVar="-1" Cut="0.0000000000000000e+00" cType="1" res="4.2202180624008179e-01" rms="8.5208482742309570e+00" purity="1.0000000000000000e+00" nType="-99"/>
            <Node pos="r" depth="3" NCoef="0" IVar="-1" Cut="0.0000000000000000e+00" cType="1" res="1.2113329172134399e+00" rms="7.8112893104553223e+00" purity="1.0000000000000000e+00" nType="-99"/>
          </Node>
          <Node pos="r" depth="2" NCoef="0" IVar="5" Cut="1.9595237731933594e+01" cType="1" res="1.0652895927429199e+01" rms="4.8612961769104004e+00" purity="1.0000000000000000e+00" nType="0">
            <Node pos="l" depth="3" NCoef="0" IVar="-1" Cut="0.0000000000000000e+00" cType="1" res="2.4290165901184082e+00" rms="9.2456922531127930e+00" purity="1.0000000000000000e+00" nType="-99"/>
            <Node pos="r" depth="3" NCoef="0" IVar="-1" Cut="0.0000000000000000e+00" cType="1" res="4.0534858703613281e+00" rms="3.6669895648956299e+00" purity="1.0000000000000000e+00" nType="-99"/>
          </Node>
        </Node>
      </Node>
    </BinaryTree>
    <BinaryTree type="DecisionTree" boostWeight="1.0000000000000000e+00" itree="22">
      <Node pos="s" depth="0" NCoef="0" IVar="1" Cut="6.6327095031738281e+01" cType="1" res="1.3928860425949097e-01" rms="8.3925533294677734e+00" purity="1.0000000000000000e+00" nType="0">
        <Node pos="l" depth="1" NCoef="0" IVar="1" Cut="2.9021545410156250e+01" cType="1" res="-1.8915612697601318e+00" rms="7.7301430702209473e+00" purity="1.0000000000000000e+00" nType="0">
          <Node pos="l" depth="2" NCoef="0" IVar="1" Cut="2.4580293655395508e+01" cType="1" res="-4.8267436027526855e+00" rms="6.9359641075134277e+00" purity="1.0000000000000000e+00" nType="0">
            <Node pos="l" depth="3" NCoef="0" IVar="-1" Cut="0.0000000000000000e+00" cType="1" res="-6.3224786520004272e-01" rms="6.6034712791442871e+00" purity="1.0000000000000000e+00" nType="-99"/>
            <Node pos="r" depth="3" NCoef="0" IVar="-1" Cut="0.0000000000000000e+00" cType="1" res="-3.6646980047225952e-01" rms="7.0040140151977539e+00" purity="1.0000000000000000e+00" nType="-99"/>
          </Node>
          <Node pos="r" depth="2" NCoef="0" IVar="7" Cut="9.3536396026611328e+00" cType="1" res="-1.2656054496765137e+00" rms="7.7466082572937012e+00" purity="1.0000000000000000e+00" nType="0">
            <Node pos="l" depth="3" NCoef="0" IVar="-1" Cut="0.0000000000000000e+00" cType="1" res="-2.1035228669643402e-01" rms="7.5529465675354004e+00" purity="1.0000000000000000e+00" nType="-99"/>
            <Node pos="r" depth="3" NCoef="0" IVar="-1" Cut="0.0000000000000000e+00" cType="1" res="1.5940035879611969e-01" rms="8.1224708557128906e+00" purity="1.0000000000000000e+00" nType="-99"/>
          </Node>
        </Node>
        <Node pos="r" depth="1" NCoef="0" IVar="1" Cut="1.7291360473632812e+02" cType="1" res="3.0297811031341553e+00" rms="8.4504671096801758e+00" purity="1.0000000000000000e+00" nType="0">
          <Node pos="l" depth="2" NCoef="0" IVar="7" Cut="-8.7113639831542969e+01" cType="1" res="2.5123641490936279e+00" rms="8.4213790893554688e+00" purity="1.0000000000000000e+00" nType="0">
            <Node pos="l" depth="3" NCoef="0" IVar="-1" Cut="0.0000000000000000e+00" cType="1" res="1.8000224232673645e-01" rms="8.3851451873779297e+00" purity="1.0000000000000000e+00" nType="-99"/>
            <Node pos="r" depth="3" NCoef="0" IVar="-1" Cut="0.0000000000000000e+00" cType="1" res="6.1466765403747559e-01" rms="8.2504901885986328e+00" purity="1.0000000000000000e+00" nType="-99"/>
          </Node>
          <Node pos="r" depth="2" NCoef="0" IVar="1" Cut="2.2113311767578125e+02" cType="1" res="1.0084644317626953e+01" rms="4.9679617881774902e+00" purity="1.0000000000000000e+00" nType="0">
            <Node pos="l" depth="3" NCoef="0" IVar="-1" Cut="0.0000000000000000e+00" cType="1" res="2.2007155418395996e+00" rms="5.7081842422485352e+00" purity="1.0000000000000000e+00" nType="-99"/>
            <Node pos="r" depth="3" NCoef="0" IVar="-1" Cut="0.0000000000000000e+00" cType="1" res="5.1505537033081055e+00" rms="2.9535367488861084e+00" purity="1.0000000000000000e+00" nType="-99"/>
          </Node>
        </Node>
      </Node>
    </BinaryTree>
    <BinaryTree type="DecisionTree" boostWeight="1.0000000000000000e+00" itree="23">
      <Node pos="s" depth="0" NCoef="0" IVar="1" Cut="8.6212722778320312e+01" cType="1" res="8.7620131671428680e-02" rms="8.2401695251464844e+00" purity="1.0000000000000000e+00" nType="0">
        <Node pos="l" depth="1" NCoef="0" IVar="1" Cut="5.7273036956787109e+01" cType="1" res="-1.0680230855941772e+00" rms="7.8288774490356445e+00" purity="1.0000000000000000e+00" nType="0">
          <Node pos="l" depth="2" NCoef="0" IVar="1" Cut="2.5921464920043945e+01" cType="1" res="-2.1726715564727783e+00" rms="7.4811491966247559e+00" purity="1.0000000000000000e+00" nType="0">
            <Node pos="l" depth="3" NCoef="0" IVar="-1" Cut="0.0000000000000000e+00" cType="1" res="-5.3827941417694092e-01" rms="6.6468167304992676e+00" purity="1.0000000000000000e+00" nType="-99"/>
            <Node pos="r" depth="3" NCoef="0" IVar="-1" Cut="0.0000000000000000e+00" cType="1" res="-1.9635073840618134e-01" rms="7.4803428649902344e+00" purity="1.0000000000000000e+00" nType="-99"/>
          </Node>
          <Node pos="r" depth="2" NCoef="0" IVar="9" Cut="1.1907465755939484e-01" cType="1" res="1.0008714199066162e+00" rms="8.0434074401855469e+00" purity="1.0000000000000000e+00" nType="0">
            <Node pos="l" depth="3" NCoef="0" IVar="-1" Cut="0.0000000000000000e+00" cType="1" res="5.4610677063465118e-02" rms="8.0208053588867188e+00" purity="1.0000000000000000e+00" nType="-99"/>
            <Node pos="r" depth="3" NCoef="0" IVar="-1" Cut="0.0000000000000000e+00" cType="1" res="5.2137130498886108e-01" rms="7.6190919876098633e+00" purity="1.0000000000000000e+00" nType="-99"/>
          </Node>
        </Node>
        <Node pos="r" depth="1" NCoef="0" IVar="4" Cut="2.0698355102539062e+02" cType="1" res="3.5734884738922119e+00" rms="8.4649982452392578e+00" purity="1.0000000000000000e+00" nType="0">
          <Node pos="l" depth="2" NCoef="0" IVar="1" Cut="9.3212829589843750e+01" cType="1" res="3.0342967510223389e+00" rms="8.4654550552368164e+00" purity="1.0000000000000000e+00" nType="0">
            <Node pos="l" depth="3" NCoef="0" IVar="-1" Cut="0.0000000000000000e+00" cType="1" res="4.1350867599248886e-02" rms="8.3857059478759766e+00" purity="1.0000000000000000e+00" nType="-99"/>
            <Node pos="r" depth="3" NCoef="0" IVar="-1" Cut="0.0000000000000000e+00" cType="1" res="5.0967055559158325e-01" rms="8.3968391418457031e+00" purity="1.0000000000000000e+00" nType="-99"/>
          </Node>
          <Node pos="r" depth="2" NCoef="0" IVar="12" Cut="1.3022419810295105e-01" cType="1" res="9.5426263809204102e+00" rms="5.7202749252319336e+00" purity="1.0000000000000000e+00" nType="0">
            <Node pos="l" depth="3" NCoef="0" IVar="-1" Cut="0.0000000000000000e+00" cType="1" res="1.9511020183563232e+00" rms="8.8061599731445312e+00" purity="1.0000000000000000e+00" nType="-99"/>
            <Node pos="r" depth="3" NCoef="0" IVar="-1" Cut="0.0000000000000000e+00" cType="1" res="3.4073717594146729e+00" rms="4.8473978042602539e+00" purity="1.0000000000000000e+00" nType="-99"/>
          </Node>
        </Node>
      </Node>
    </BinaryTree>
    <BinaryTree type="DecisionTree" boostWeight="1.0000000000000000e+00" itree="24">
      <Node pos="s" depth="0" NCoef="0" IVar="1" Cut="8.6330055236816406e+01" cType="1" res="7.5481407344341278e-02" rms="8.1407308578491211e+00" purity="1.0000000000000000e+00" nType="0">
        <Node pos="l" depth="1" NCoef="0" IVar="1" Cut="5.7392433166503906e+01" cType="1" res="-9.7873741388320923e-01" rms="7.7373661994934082e+00" purity="1.0000000000000000e+00" nType="0">
          <Node pos="l" depth="2" NCoef="0" IVar="7" Cut="-9.1557960510253906e+01" cType="1" res="-1.9804221391677856e+00" rms="7.4140634536743164e+00" purity="1.0000000000000000e+00" nType="0">
            <Node pos="l" depth="3" NCoef="0" IVar="-1" Cut="0.0000000000000000e+00" cType="1" res="-2.8953999280929565e-01" rms="7.0686979293823242e+00" purity="1.0000000000000000e+00" nType="-99"/>
            <Node pos="r" depth="3" NCoef="0" IVar="-1" Cut="0.0000000000000000e+00" cType="1" res="-1.9083756953477859e-02" rms="7.9788327217102051e+00" purity="1.0000000000000000e+00" nType="-99"/>
          </Node>
          <Node pos="r" depth="2" NCoef="0" IVar="1" Cut="7.9440071105957031e+01" cType="1" res="8.9979743957519531e-01" rms="7.9776415824890137e+00" purity="1.0000000000000000e+00" nType="0">
            <Node pos="l" depth="3" NCoef="0" IVar="-1" Cut="0.0000000000000000e+00" cType="1" res="2.7073580771684647e-02" rms="7.9657683372497559e+00" purity="1.0000000000000000e+00" nType="-99"/>
            <Node pos="r" depth="3" NCoef="0" IVar="-1" Cut="0.0000000000000000e+00" cType="1" res="3.8931387662887573e-01" rms="7.7074813842773438e+00" purity="1.0000000000000000e+00" nType="-99"/>
          </Node>
        </Node>
        <Node pos="r" depth="1" NCoef="0" IVar="4" Cut="2.0698355102539062e+02" cType="1" res="3.2772850990295410e+00" rms="8.4909582138061523e+00" purity="1.0000000000000000e+00" nType="0">
          <Node pos="l" depth="2" NCoef="0" IVar="15" Cut="1.5458853244781494e+00" cType="1" res="2.7560689449310303e+00" rms="8.4510059356689453e+00" purity="1.0000000000000000e+00" nType="0">
            <Node pos="l" depth="3" NCoef="0" IVar="-1" Cut="0.0000000000000000e+00" cType="1" res="5.3713333606719971e-01" rms="8.2941122055053711e+00" purity="1.0000000000000000e+00" nType="-99"/>
            <Node pos="r" depth="3" NCoef="0" IVar="-1" Cut="0.0000000000000000e+00" cType="1" res="1.3170768320560455e-01" rms="8.5363397598266602e+00" purity="1.0000000000000000e+00" nType="-99"/>
          </Node>
          <Node pos="r" depth="2" NCoef="0" IVar="12" Cut="1.2894764542579651e-01" cType="1" res="9.0720376968383789e+00" rms="6.5591316223144531e+00" purity="1.0000000000000000e+00" nType="0">
            <Node pos="l" depth="3" NCoef="0" IVar="-1" Cut="0.0000000000000000e+00" cType="1" res="1.8878362178802490e+00" rms="8.9078817367553711e+00" purity="1.0000000000000000e+00" nType="-99"/>
            <Node pos="r" depth="3" NCoef="0" IVar="-1" Cut="0.0000000000000000e+00" cType="1" res="2.8881518840789795e+00" rms="5.8755545616149902e+00" purity="1.0000000000000000e+00" nType="-99"/>
          </Node>
        </Node>
      </Node>
    </BinaryTree>
    <BinaryTree type="DecisionTree" boostWeight="1.0000000000000000e+00" itree="25">
      <Node pos="s" depth="0" NCoef="0" IVar="1" Cut="8.6212722778320312e+01" cType="1" res="8.3832897245883942e-02" rms="8.0324153900146484e+00" purity="1.0000000000000000e+00" nType="0">
        <Node pos="l" depth="1" NCoef="0" IVar="1" Cut="5.3655578613281250e+01" cType="1" res="-8.4563761949539185e-01" rms="7.6664166450500488e+00" purity="1.0000000000000000e+00" nType="0">
          <Node pos="l" depth="2" NCoef="0" IVar="7" Cut="-9.1557960510253906e+01" cType="1" res="-1.8768992424011230e+00" rms="7.3040146827697754e+00" purity="1.0000000000000000e+00" nType="0">
            <Node pos="l" depth="3" NCoef="0" IVar="-1" Cut="0.0000000000000000e+00" cType="1" res="-2.7131798863410950e-01" rms="6.9635381698608398e+00" purity="1.0000000000000000e+00" nType="-99"/>
            <Node pos="r" depth="3" NCoef="0" IVar="-1" Cut="0.0000000000000000e+00" cType="1" res="-1.4235940761864185e-02" rms="7.8789973258972168e+00" purity="1.0000000000000000e+00" nType="-99"/>
          </Node>
          <Node pos="r" depth="2" NCoef="0" IVar="1" Cut="7.8461013793945312e+01" cType="1" res="6.5244984626770020e-01" rms="7.9288063049316406e+00" purity="1.0000000000000000e+00" nType="0">
            <Node pos="l" depth="3" NCoef="0" IVar="-1" Cut="0.0000000000000000e+00" cType="1" res="7.8206295147538185e-03" rms="7.8800258636474609e+00" purity="1.0000000000000000e+00" nType="-99"/>
            <Node pos="r" depth="3" NCoef="0" IVar="-1" Cut="0.0000000000000000e+00" cType="1" res="3.4774631261825562e-01" rms="7.8423590660095215e+00" purity="1.0000000000000000e+00" nType="-99"/>
          </Node>
        </Node>
        <Node pos="r" depth="1" NCoef="0" IVar="4" Cut="2.0698355102539062e+02" cType="1" res="2.9414215087890625e+00" rms="8.4476480484008789e+00" purity="1.0000000000000000e+00" nType="0">
          <Node pos="l" depth="2" NCoef="0" IVar="7" Cut="-8.5909660339355469e+01" cType="1" res="2.4440035820007324e+00" rms="8.4316349029541016e+00" purity="1.0000000000000000e+00" nType="0">
            <Node pos="l" depth="3" NCoef="0" IVar="-1" Cut="0.0000000000000000e+00" cType="1" res="2.0838171243667603e-01" rms="8.4430761337280273e+00" purity="1.0000000000000000e+00" nType="-99"/>
            <Node pos="r" depth="3" NCoef="0" IVar="-1" Cut="0.0000000000000000e+00" cType="1" res="6.5923035144805908e-01" rms="8.2046022415161133e+00" purity="1.0000000000000000e+00" nType="-99"/>
          </Node>
          <Node pos="r" depth="2" NCoef="0" IVar="1" Cut="2.4866656494140625e+02" cType="1" res="8.4218835830688477e+00" rms="6.4481973648071289e+00" purity="1.0000000000000000e+00" nType="0">
            <Node pos="l" depth="3" NCoef="0" IVar="-1" Cut="0.0000000000000000e+00" cType="1" res="1.6504859924316406e+00" rms="7.2415800094604492e+00" purity="1.0000000000000000e+00" nType="-99"/>
            <Node pos="r" depth="3" NCoef="0" IVar="-1" Cut="0.0000000000000000e+00" cType="1" res="5.7226676940917969e+00" rms="2.9226360321044922e+00" purity="1.0000000000000000e+00" nType="-99"/>
          </Node>
        </Node>
      </Node>
    </BinaryTree>
    <BinaryTree type="DecisionTree" boostWeight="1.0000000000000000e+00" itree="26">
      <Node pos="s" depth="0" NCoef="0" IVar="1" Cut="7.0569984436035156e+01" cType="1" res="9.6219837665557861e-02" rms="7.9422850608825684e+00" purity="1.0000000000000000e+00" nType="0">
        <Node pos="l" depth="1" NCoef="0" IVar="1" Cut="3.0436050415039062e+01" cType="1" res="-1.1931314468383789e+00" rms="7.4283323287963867e+00" purity="1.0000000000000000e+00" nType="0">
          <Node pos="l" depth="2" NCoef="0" IVar="1" Cut="2.3747011184692383e+01" cType="1" res="-3.2802588939666748e+00" rms="6.7384462356567383e+00" purity="1.0000000000000000e+00" nType="0">
            <Node pos="l" depth="3" NCoef="0" IVar="-1" Cut="0.0000000000000000e+00" cType="1" res="-5.1514494419097900e-01" rms="6.4061322212219238e+00" purity="1.0000000000000000e+00" nType="-99"/>
            <Node pos="r" depth="3" NCoef="0" IVar="-1" Cut="0.0000000000000000e+00" cType="1" res="-2.6777508854866028e-01" rms="6.7495756149291992e+00" purity="1.0000000000000000e+00" nType="-99"/>
          </Node>
          <Node pos="r" depth="2" NCoef="0" IVar="9" Cut="4.4176191091537476e-02" cType="1" res="-6.8489861488342285e-01" rms="7.4993996620178223e+00" purity="1.0000000000000000e+00" nType="0">
            <Node pos="l" depth="3" NCoef="0" IVar="-1" Cut="0.0000000000000000e+00" cType="1" res="-1.3750569522380829e-01" rms="7.4098892211914062e+00" purity="1.0000000000000000e+00" nType="-99"/>
            <Node pos="r" depth="3" NCoef="0" IVar="-1" Cut="0.0000000000000000e+00" cType="1" res="1.8936184048652649e-01" rms="7.5707039833068848e+00" purity="1.0000000000000000e+00" nType="-99"/>
          </Node>
        </Node>
        <Node pos="r" depth="1" NCoef="0" IVar="1" Cut="1.8523826599121094e+02" cType="1" res="2.2771532535552979e+00" rms="8.2990283966064453e+00" purity="1.0000000000000000e+00" nType="0">
          <Node pos="l" depth="2" NCoef="0" IVar="7" Cut="-8.6807754516601562e+01" cType="1" res="1.8905565738677979e+00" rms="8.2617483139038086e+00" purity="1.0000000000000000e+00" nType="0">
            <Node pos="l" depth="3" NCoef="0" IVar="-1" Cut="0.0000000000000000e+00" cType="1" res="1.3254363834857941e-01" rms="8.2273807525634766e+00" purity="1.0000000000000000e+00" nType="-99"/>
            <Node pos="r" depth="3" NCoef="0" IVar="-1" Cut="0.0000000000000000e+00" cType="1" res="5.0195038318634033e-01" rms="8.1548738479614258e+00" purity="1.0000000000000000e+00" nType="-99"/>
          </Node>
          <Node pos="r" depth="2" NCoef="0" IVar="1" Cut="2.3711465454101562e+02" cType="1" res="8.4445829391479492e+00" rms="6.1888318061828613e+00" purity="1.0000000000000000e+00" nType="0">
            <Node pos="l" depth="3" NCoef="0" IVar="-1" Cut="0.0000000000000000e+00" cType="1" res="1.7323267459869385e+00" rms="6.9649729728698730e+00" purity="1.0000000000000000e+00" nType="-99"/>
            <Node pos="r" depth="3" NCoef="0" IVar="-1" Cut="0.0000000000000000e+00" cType="1" res="4.4993076324462891e+00" rms="3.9910571575164795e+00" purity="1.0000000000000000e+00" nType="-99"/>
          </Node>
        </Node>
      </Node>
    </BinaryTree>
    <BinaryTree type="DecisionTree" boostWeight="1.0000000000000000e+00" itree="27">
      <Node pos="s" depth="0" NCoef="0" IVar="1" Cut="7.0569984436035156e+01" cType="1" res="7.8348204493522644e-02" rms="7.8692860603332520e+00" purity="1.0000000000000000e+00" nType="0">
        <Node pos="l" depth="1" NCoef="0" IVar="16" Cut="7.4637997150421143e-01" cType="1" res="-1.0785892009735107e+00" rms="7.3736500740051270e+00" purity="1.0000000000000000e+00" nType="0">
          <Node pos="l" depth="2" NCoef="0" IVar="9" Cut="4.9200188368558884e-02" cType="1" res="-1.6016772985458374e+00" rms="7.2975578308105469e+00" purity="1.0000000000000000e+00" nType="0">
            <Node pos="l" depth="3" NCoef="0" IVar="-1" Cut="0.0000000000000000e+00" cType="1" res="-2.3639033734798431e-01" rms="7.1783332824707031e+00" purity="1.0000000000000000e+00" nType="-99"/>
            <Node pos="r" depth="3" NCoef="0" IVar="-1" Cut="0.0000000000000000e+00" cType="1" res="6.3827760517597198e-02" rms="7.5451807975769043e+00" purity="1.0000000000000000e+00" nType="-99"/>
          </Node>
          <Node pos="r" depth="2" NCoef="0" IVar="16" Cut="1.4572216272354126e+00" cType="1" res="6.1889749765396118e-01" rms="7.3637003898620605e+00" purity="1.0000000000000000e+00" nType="0">
            <Node pos="l" depth="3" NCoef="0" IVar="-1" Cut="0.0000000000000000e+00" cType="1" res="-1.9715143367648125e-02" rms="7.2741208076477051e+00" purity="1.0000000000000000e+00" nType="-99"/>
            <Node pos="r" depth="3" NCoef="0" IVar="-1" Cut="0.0000000000000000e+00" cType="1" res="2.1740467846393585e-01" rms="7.3503537178039551e+00" purity="1.0000000000000000e+00" nType="-99"/>
          </Node>
        </Node>
        <Node pos="r" depth="1" NCoef="0" IVar="1" Cut="1.8523826599121094e+02" cType="1" res="2.0303895473480225e+00" rms="8.2827453613281250e+00" purity="1.0000000000000000e+00" nType="0">
          <Node pos="l" depth="2" NCoef="0" IVar="15" Cut="2.1607487201690674e+00" cType="1" res="1.6790302991867065e+00" rms="8.2411861419677734e+00" purity="1.0000000000000000e+00" nType="0">
            <Node pos="l" depth="3" NCoef="0" IVar="-1" Cut="0.0000000000000000e+00" cType="1" res="2.9664647579193115e-01" rms="8.1733732223510742e+00" purity="1.0000000000000000e+00" nType="-99"/>
            <Node pos="r" depth="3" NCoef="0" IVar="-1" Cut="0.0000000000000000e+00" cType="1" res="-8.9567638933658600e-02" rms="8.2327680587768555e+00" purity="1.0000000000000000e+00" nType="-99"/>
          </Node>
          <Node pos="r" depth="2" NCoef="0" IVar="1" Cut="2.3713363647460938e+02" cType="1" res="7.7695794105529785e+00" rms="6.6982316970825195e+00" purity="1.0000000000000000e+00" nType="0">
            <Node pos="l" depth="3" NCoef="0" IVar="-1" Cut="0.0000000000000000e+00" cType="1" res="1.5229868888854980e+00" rms="7.4162683486938477e+00" purity="1.0000000000000000e+00" nType="-99"/>
            <Node pos="r" depth="3" NCoef="0" IVar="-1" Cut="0.0000000000000000e+00" cType="1" res="4.1103191375732422e+00" rms="4.5442547798156738e+00" purity="1.0000000000000000e+00" nType="-99"/>
          </Node>
        </Node>
      </Node>
    </BinaryTree>
    <BinaryTree type="DecisionTree" boostWeight="1.0000000000000000e+00" itree="28">
      <Node pos="s" depth="0" NCoef="0" IVar="1" Cut="7.0908355712890625e+01" cType="1" res="8.8852860033512115e-02" rms="7.8005142211914062e+00" purity="1.0000000000000000e+00" nType="0">
        <Node pos="l" depth="1" NCoef="0" IVar="16" Cut="7.1706545352935791e-01" cType="1" res="-9.6158361434936523e-01" rms="7.3094396591186523e+00" purity="1.0000000000000000e+00" nType="0">
          <Node pos="l" depth="2" NCoef="0" IVar="9" Cut="4.2674992233514786e-02" cType="1" res="-1.4607659578323364e+00" rms="7.2524156570434570e+00" purity="1.0000000000000000e+00" nType="0">
            <Node pos="l" depth="3" NCoef="0" IVar="-1" Cut="0.0000000000000000e+00" cType="1" res="-2.1595023572444916e-01" rms="7.1326160430908203e+00" purity="1.0000000000000000e+00" nType="-99"/>
            <Node pos="r" depth="3" NCoef="0" IVar="-1" Cut="0.0000000000000000e+00" cType="1" res="6.0133390128612518e-02" rms="7.5187487602233887e+00" purity="1.0000000000000000e+00" nType="-99"/>
          </Node>
          <Node pos="r" depth="2" NCoef="0" IVar="10" Cut="3.7691149115562439e-01" cType="1" res="5.7811301946640015e-01" rms="7.2697935104370117e+00" purity="1.0000000000000000e+00" nType="0">
            <Node pos="l" depth="3" NCoef="0" IVar="-1" Cut="0.0000000000000000e+00" cType="1" res="3.4831258654594421e-01" rms="7.3256549835205078e+00" purity="1.0000000000000000e+00" nType="-99"/>
            <Node pos="r" depth="3" NCoef="0" IVar="-1" Cut="0.0000000000000000e+00" cType="1" res="1.6309395432472229e-02" rms="7.1952943801879883e+00" purity="1.0000000000000000e+00" nType="-99"/>
          </Node>
        </Node>
        <Node pos="r" depth="1" NCoef="0" IVar="1" Cut="1.8554429626464844e+02" cType="1" res="1.8952256441116333e+00" rms="8.2732982635498047e+00" purity="1.0000000000000000e+00" nType="0">
          <Node pos="l" depth="2" NCoef="0" IVar="15" Cut="1.5458853244781494e+00" cType="1" res="1.5680423974990845e+00" rms="8.2292852401733398e+00" purity="1.0000000000000000e+00" nType="0">
            <Node pos="l" depth="3" NCoef="0" IVar="-1" Cut="0.0000000000000000e+00" cType="1" res="3.1751823425292969e-01" rms="8.1712179183959961e+00" purity="1.0000000000000000e+00" nType="-99"/>
            <Node pos="r" depth="3" NCoef="0" IVar="-1" Cut="0.0000000000000000e+00" cType="1" res="1.6012541949748993e-02" rms="8.2020416259765625e+00" purity="1.0000000000000000e+00" nType="-99"/>
          </Node>
          <Node pos="r" depth="2" NCoef="0" IVar="0" Cut="2.8724948120117188e+02" cType="1" res="7.1921753883361816e+00" rms="7.1004004478454590e+00" purity="1.0000000000000000e+00" nType="0">
            <Node pos="l" depth="3" NCoef="0" IVar="-1" Cut="0.0000000000000000e+00" cType="1" res="1.4966661930084229e+00" rms="7.5550813674926758e+00" purity="1.0000000000000000e+00" nType="-99"/>
            <Node pos="r" depth="3" NCoef="0" IVar="-1" Cut="0.0000000000000000e+00" cType="1" res="5.3963513374328613e+00" rms="4.3864526748657227e+00" purity="1.0000000000000000e+00" nType="-99"/>
          </Node>
        </Node>
      </Node>
    </BinaryTree>
    <BinaryTree type="DecisionTree" boostWeight="1.0000000000000000e+00" itree="29">
      <Node pos="s" depth="0" NCoef="0" IVar="5" Cut="1.8285715103149414e+01" cType="1" res="7.8209817409515381e-02" rms="7.7525229454040527e+00" purity="1.0000000000000000e+00" nType="0">
        <Node pos="l" depth="1" NCoef="0" IVar="12" Cut="2.8459805250167847e-01" cType="1" res="-6.5816336870193481e-01" rms="7.4555997848510742e+00" purity="1.0000000000000000e+00" nType="0">
          <Node pos="l" depth="2" NCoef="0" IVar="5" Cut="7.8348212242126465e+00" cType="1" res="-1.5010918378829956e+00" rms="7.3769350051879883e+00" purity="1.0000000000000000e+00" nType="0">
            <Node pos="l" depth="3" NCoef="0" IVar="-1" Cut="0.0000000000000000e+00" cType="1" res="-3.4445399045944214e-01" rms="6.8364367485046387e+00" purity="1.0000000000000000e+00" nType="-99"/>
            <Node pos="r" depth="3" NCoef="0" IVar="-1" Cut="0.0000000000000000e+00" cType="1" res="-1.1205314844846725e-01" rms="7.5435528755187988e+00" purity="1.0000000000000000e+00" nType="-99"/>
          </Node>
